{"type":"LSTMTimeStep","options":{"inputSize":1,"hiddenLayers":[20],"outputSize":1,"decayRate":0.999,"smoothEps":1e-8,"regc":0.000001,"clipval":5},"hiddenLayers":[{"inputMatrix":{"rows":20,"columns":1,"weights":{"0":-0.5371733903884888,"1":0.9729713797569275,"2":0.03186178207397461,"3":-0.5218771696090698,"4":-0.0692269504070282,"5":-0.47956982254981995,"6":0.5270593762397766,"7":-0.841585636138916,"8":-0.6925390958786011,"9":0.39931854605674744,"10":-0.5212358236312866,"11":0.3618156611919403,"12":0.29960453510284424,"13":0.04442156106233597,"14":0.5513302087783813,"15":0.6302598118782043,"16":0.109955333173275,"17":-0.7061565518379211,"18":0.46332037448883057,"19":0.5441632270812988}},"inputHidden":{"rows":20,"columns":20,"weights":{"0":-0.055734481662511826,"1":-1.1385852098464966,"2":0.20106638967990875,"3":-0.2126183956861496,"4":0.14499156177043915,"5":0.8235532641410828,"6":-0.43189752101898193,"7":0.9912609457969666,"8":0.21940463781356812,"9":-0.7920284271240234,"10":0.8319457769393921,"11":-1.1147212982177734,"12":1.099470615386963,"13":0.0927777886390686,"14":-0.5806434750556946,"15":-0.44771483540534973,"16":0.3132127821445465,"17":0.5532249808311462,"18":-1.0541141033172607,"19":0.6209697127342224,"20":0.5984692573547363,"21":0.7612432837486267,"22":-1.8362427949905396,"23":0.600983202457428,"24":-2.2019476890563965,"25":1.1254156827926636,"26":-0.033714234828948975,"27":0.6867496967315674,"28":0.03488916903734207,"29":0.5859429836273193,"30":0.6347860097885132,"31":0.5472280979156494,"32":-0.6334503889083862,"33":-1.6158862113952637,"34":-0.24907365441322327,"35":-0.035017382353544235,"36":-0.05745794624090195,"37":1.486907958984375,"38":0.3826034665107727,"39":0.22573983669281006,"40":0.06476153433322906,"41":0.4110361635684967,"42":0.711367666721344,"43":-0.0420021191239357,"44":0.4430311322212219,"45":0.23537923395633698,"46":0.5623992681503296,"47":0.22482310235500336,"48":0.3850874602794647,"49":0.41457152366638184,"50":0.3557775318622589,"51":0.3883671462535858,"52":-0.3118397295475006,"53":0.7802629470825195,"54":0.9936319589614868,"55":0.532902717590332,"56":-0.31173408031463623,"57":-0.04240969195961952,"58":0.379987895488739,"59":-0.6950799822807312,"60":0.08273056894540787,"61":-1.2720167636871338,"62":0.018237316980957985,"63":-0.01136742066591978,"64":-0.12451197952032089,"65":1.0386853218078613,"66":-0.39303508400917053,"67":0.825768232345581,"68":0.22562523186206818,"69":-0.6926360130310059,"70":0.8952657580375671,"71":-1.1660706996917725,"72":1.2139009237289429,"73":-0.027215255424380302,"74":-0.6959121227264404,"75":-0.4637087881565094,"76":0.2923275828361511,"77":0.3364434540271759,"78":-1.2169054746627808,"79":0.9554352164268494,"80":-0.21232545375823975,"81":0.26622268557548523,"82":0.8681402802467346,"83":-0.12493442744016647,"84":0.5634704828262329,"85":1.0314512252807617,"86":0.4410272538661957,"87":0.23998476564884186,"88":0.495311439037323,"89":0.1441979557275772,"90":1.0871368646621704,"91":0.4050963521003723,"92":-0.281904935836792,"93":0.8428031206130981,"94":0.5851606726646423,"95":0.18572279810905457,"96":-0.3529900908470154,"97":-0.07942862063646317,"98":0.3669046461582184,"99":-0.5579591989517212,"100":-0.08769839257001877,"101":-0.8060871958732605,"102":0.4282187223434448,"103":-0.18017897009849548,"104":0.4480174481868744,"105":-1.0894049406051636,"106":-0.6907877922058105,"107":0.19993498921394348,"108":-0.6082412600517273,"109":-1.2141815423965454,"110":-1.0883457660675049,"111":-0.741441011428833,"112":1.0911096334457397,"113":0.6025229096412659,"114":-0.2100907415151596,"115":-0.8779447078704834,"116":1.5719314813613892,"117":0.05876798927783966,"118":-1.0523945093154907,"119":0.2596980929374695,"120":-0.8109359741210938,"121":0.09263690561056137,"122":-0.11705128848552704,"123":-0.6671991348266602,"124":-0.08783693611621857,"125":-0.2662633955478668,"126":1.1322072744369507,"127":-0.690172553062439,"128":-0.11850052326917648,"129":0.2220606505870819,"130":-0.5857499837875366,"131":0.1886703372001648,"132":-0.16898809373378754,"133":-0.047720059752464294,"134":0.7138087749481201,"135":0.927740752696991,"136":-0.7471567988395691,"137":-0.7048110961914062,"138":0.14774174988269806,"139":-0.8761175870895386,"140":0.5466029047966003,"141":-0.5112643837928772,"142":0.015064717270433903,"143":0.44661495089530945,"144":-0.05204901471734047,"145":0.38972461223602295,"146":-0.21961165964603424,"147":0.3461877107620239,"148":-0.13216666877269745,"149":-0.5330300331115723,"150":0.7225193977355957,"151":-0.6034255623817444,"152":0.7009428143501282,"153":0.1473868191242218,"154":-0.6163685321807861,"155":-0.10238008946180344,"156":0.2503068745136261,"157":0.4301041066646576,"158":-0.5724025368690491,"159":0.68561851978302,"160":0.051839835941791534,"161":-1.007448434829712,"162":0.11940674483776093,"163":0.32904934883117676,"164":0.12112696468830109,"165":-0.5593765377998352,"166":-0.572130560874939,"167":0.18583457171916962,"168":-0.7514169812202454,"169":-1.690377116203308,"170":-0.06430435180664062,"171":-1.0914658308029175,"172":1.2473376989364624,"173":0.14732778072357178,"174":-0.6065894365310669,"175":-0.952954888343811,"176":0.6931192874908447,"177":0.7336503863334656,"178":-1.1619793176651,"179":0.6706028580665588,"180":-0.1132364496588707,"181":0.8850855231285095,"182":-0.40044036507606506,"183":-0.015823502093553543,"184":-0.3170084059238434,"185":-0.1450086086988449,"186":0.25192564725875854,"187":-0.14219233393669128,"188":0.06068606302142143,"189":0.9038442969322205,"190":0.2555657923221588,"191":1.0268278121948242,"192":-0.9942506551742554,"193":-0.29664191603660583,"194":0.5374045372009277,"195":0.38426926732063293,"196":-0.3673056960105896,"197":0.23482976853847504,"198":1.0213943719863892,"199":-0.611484169960022,"200":0.11067919433116913,"201":-1.9678218364715576,"202":0.38862156867980957,"203":0.6327271461486816,"204":0.31783783435821533,"205":0.012391585856676102,"206":-1.0000882148742676,"207":0.8316720128059387,"208":0.28667089343070984,"209":-1.268027424812317,"210":0.24177196621894836,"211":-1.268452525138855,"212":1.5165026187896729,"213":0.3225983679294586,"214":-0.4060276746749878,"215":-1.0708428621292114,"216":1.5259538888931274,"217":0.45735087990760803,"218":-1.4530850648880005,"219":0.4613509774208069,"220":0.7070749998092651,"221":1.267608642578125,"222":-0.35566818714141846,"223":0.6674497723579407,"224":-0.41740918159484863,"225":0.22871482372283936,"226":0.15265105664730072,"227":0.5431275963783264,"228":0.4446428716182709,"229":1.3445899486541748,"230":0.06736394017934799,"231":0.8365153670310974,"232":-1.1091814041137695,"233":-0.2913123667240143,"234":0.46519699692726135,"235":0.7601687908172607,"236":-0.2741435170173645,"237":-0.12550555169582367,"238":1.1060168743133545,"239":-0.5661739110946655,"240":0.5533238053321838,"241":1.1026023626327515,"242":-0.7693446278572083,"243":0.4753042161464691,"244":-0.7667943239212036,"245":0.6318330764770508,"246":0.3310548663139343,"247":0.5773695707321167,"248":0.2004564106464386,"249":1.1247261762619019,"250":0.5798630118370056,"251":0.9472773671150208,"252":-1.1196950674057007,"253":-0.7088737487792969,"254":0.16169536113739014,"255":0.4802406132221222,"256":-0.5584932565689087,"257":0.07819721102714539,"258":1.046598196029663,"259":-0.3358893394470215,"260":-0.05068925768136978,"261":0.39588379859924316,"262":0.8016946911811829,"263":-0.04443560540676117,"264":0.41825634241104126,"265":0.2883741855621338,"266":0.4804205000400543,"267":0.3283230662345886,"268":0.41196829080581665,"269":0.26335859298706055,"270":0.32058244943618774,"271":0.2817125618457794,"272":-0.30171653628349304,"273":0.8825669288635254,"274":0.6568390727043152,"275":0.37539440393447876,"276":-0.1894557774066925,"277":-0.09900451451539993,"278":0.3417552411556244,"279":-0.5770494937896729,"280":0.3035162091255188,"281":0.47031596302986145,"282":0.8968132138252258,"283":0.2851555347442627,"284":0.2993987500667572,"285":-0.1605716049671173,"286":0.3680994510650635,"287":0.3925226628780365,"288":-0.8598153591156006,"289":0.49875736236572266,"290":-0.3585216999053955,"291":0.4880272448062897,"292":-0.5991300940513611,"293":1.0435494184494019,"294":0.31147342920303345,"295":0.5289508700370789,"296":-0.639900267124176,"297":-0.3137640953063965,"298":0.5436269640922546,"299":-0.39384332299232483,"300":-0.8659217953681946,"301":0.2962995767593384,"302":-0.059318434447050095,"303":-0.9321886301040649,"304":-0.10363178700208664,"305":-0.31140604615211487,"306":0.9094151258468628,"307":-0.7554599642753601,"308":-0.24828065931797028,"309":0.40032264590263367,"310":-0.35974690318107605,"311":0.38794568181037903,"312":-0.26360952854156494,"313":0.04037877544760704,"314":0.759057879447937,"315":0.9171434044837952,"316":-1.0111448764801025,"317":-0.6731475591659546,"318":0.39114922285079956,"319":-1.0068784952163696,"320":-0.5600022673606873,"321":0.5885058641433716,"322":-0.19409288465976715,"323":-1.0533227920532227,"324":-0.19683237373828888,"325":0.189753457903862,"326":1.236464023590088,"327":-0.4564136266708374,"328":-0.3495563864707947,"329":0.3939538896083832,"330":0.5447133183479309,"331":0.5165466070175171,"332":-0.38437044620513916,"333":-0.165004700422287,"334":0.7554881572723389,"335":1.1073492765426636,"336":-1.484381079673767,"337":-0.5268365144729614,"338":0.5591207146644592,"339":-0.7639254927635193,"340":0.08509846776723862,"341":-0.47086989879608154,"342":1.0269944667816162,"343":0.18535789847373962,"344":1.1058427095413208,"345":-0.0910612940788269,"346":-0.10918071866035461,"347":0.17594265937805176,"348":0.02219598926603794,"349":-0.3679259121417999,"350":-0.12257020175457001,"351":-0.21976986527442932,"352":0.34739968180656433,"353":0.891106128692627,"354":-0.32360753417015076,"355":-0.3763352036476135,"356":0.3545598089694977,"357":-0.759833574295044,"358":-0.33917754888534546,"359":0.5165008902549744,"360":0.5279595851898193,"361":1.0300285816192627,"362":-0.7194972038269043,"363":0.40875187516212463,"364":-0.8014180660247803,"365":0.4600280225276947,"366":0.25110504031181335,"367":0.4822656214237213,"368":0.20559284090995789,"369":1.1969937086105347,"370":0.6006467938423157,"371":0.9603034257888794,"372":-0.998042106628418,"373":-0.6233463883399963,"374":0.24983753263950348,"375":0.5539754629135132,"376":-0.6816787719726562,"377":0.049022968858480453,"378":1.1639044284820557,"379":-0.28175070881843567,"380":0.4313814043998718,"381":0.427826464176178,"382":0.9051661491394043,"383":0.4709024429321289,"384":0.1139349639415741,"385":-0.2347901314496994,"386":0.369109570980072,"387":0.4963652193546295,"388":-0.7147175669670105,"389":0.4331601858139038,"390":-0.24982349574565887,"391":0.3399766981601715,"392":-0.4543948769569397,"393":0.8777267932891846,"394":0.401435911655426,"395":0.34914064407348633,"396":-0.47993722558021545,"397":-0.17567405104637146,"398":0.3622843623161316,"399":-0.3370145857334137}},"inputBias":{"rows":20,"columns":1,"weights":{"0":0.6667673587799072,"1":-0.4273986518383026,"2":2.5364654064178467,"3":1.4627829790115356,"4":3.1215054988861084,"5":0.7036409378051758,"6":-0.04079315811395645,"7":-0.5234200358390808,"8":0.9768850803375244,"9":-0.2642532289028168,"10":-0.08237112313508987,"11":-0.18843971192836761,"12":-0.7523229122161865,"13":2.373725652694702,"14":0.7030085325241089,"15":-0.6172332763671875,"16":-0.8688106536865234,"17":0.0681895762681961,"18":-0.6115114688873291,"19":0.31619390845298767}},"forgetMatrix":{"rows":20,"columns":1,"weights":{"0":-0.7247976660728455,"1":0.9761450886726379,"2":-0.029285233467817307,"3":-0.7181321978569031,"4":-1.4686024188995361,"5":0.10600501298904419,"6":0.6354539394378662,"7":-0.747759222984314,"8":-0.5190805792808533,"9":0.6165136098861694,"10":0.14274795353412628,"11":0.33659493923187256,"12":0.4635297656059265,"13":-0.011252748779952526,"14":0.4970082938671112,"15":0.6965145468711853,"16":0.5488274097442627,"17":-1.5726066827774048,"18":0.5235682129859924,"19":0.5222960114479065}},"forgetHidden":{"rows":20,"columns":20,"weights":{"0":-0.005466322414577007,"1":-0.7324923276901245,"2":-0.10027611255645752,"3":0.22477124631404877,"4":-0.051266852766275406,"5":0.5141050815582275,"6":-0.025498447939753532,"7":0.728904664516449,"8":0.37000060081481934,"9":-0.45569339394569397,"10":0.7558323740959167,"11":-0.9847849011421204,"12":1.0139849185943604,"13":-0.0743153840303421,"14":-0.4167748987674713,"15":-0.02253512479364872,"16":0.06355354934930801,"17":0.3882538080215454,"18":-0.9284709095954895,"19":0.44832468032836914,"20":0.45619022846221924,"21":0.8107677102088928,"22":-0.3523704409599304,"23":0.443319708108902,"24":-1.204979658126831,"25":1.0703176259994507,"26":-0.19417786598205566,"27":0.4454575777053833,"28":0.45720651745796204,"29":0.888777494430542,"30":0.19546541571617126,"31":0.7599284648895264,"32":-0.7786087989807129,"33":-0.3329048752784729,"34":0.32686781883239746,"35":0.30586403608322144,"36":-0.4262864887714386,"37":0.4158676266670227,"38":0.8500840663909912,"39":-0.323086678981781,"40":-0.49102097749710083,"41":0.4107409417629242,"42":1.1112180948257446,"43":-0.4144812822341919,"44":0.45842984318733215,"45":0.8564571142196655,"46":0.2887144088745117,"47":-0.19583910703659058,"48":1.195713996887207,"49":0.1575484573841095,"50":1.2167718410491943,"51":0.693991482257843,"52":-0.4618651568889618,"53":0.9870368242263794,"54":0.8315058946609497,"55":-0.013911687768995762,"56":-0.2103601098060608,"57":-0.38247713446617126,"58":0.4665659964084625,"59":-0.5449764728546143,"60":0.483319491147995,"61":-0.6559457182884216,"62":-0.046531710773706436,"63":0.8252321481704712,"64":-0.0801224485039711,"65":0.8487221002578735,"66":-0.007021740544587374,"67":0.7171843647956848,"68":0.5513132214546204,"69":-0.4430469870567322,"70":1.008917212486267,"71":-0.9418307542800903,"72":0.947668194770813,"73":-0.05927133187651634,"74":-0.268550843000412,"75":0.007576885633170605,"76":0.08192048221826553,"77":0.4024733006954193,"78":-0.8472850918769836,"79":0.4740590453147888,"80":-0.7817997336387634,"81":0.4661487340927124,"82":0.5441930294036865,"83":-0.6336011290550232,"84":0.5041962265968323,"85":0.505547285079956,"86":1.2578144073486328,"87":-0.5551209449768066,"88":0.7958219647407532,"89":-0.007401841692626476,"90":0.7755846977233887,"91":0.7428751587867737,"92":-0.5501657128334045,"93":0.5832698941230774,"94":0.3478260040283203,"95":-0.3104732930660248,"96":0.3496875762939453,"97":-1.4015799760818481,"98":0.3852018117904663,"99":-0.1938927322626114,"100":-0.09562824666500092,"101":-0.10282418131828308,"102":0.9540058374404907,"103":0.02662634663283825,"104":0.9591232538223267,"105":-0.8016166090965271,"106":-0.28447937965393066,"107":-0.10290643572807312,"108":-0.006999138277024031,"109":-1.0695295333862305,"110":-1.103171467781067,"111":-0.23899681866168976,"112":0.1541275829076767,"113":1.0457780361175537,"114":0.785292387008667,"115":0.06542045623064041,"116":0.7337710857391357,"117":-0.6971085667610168,"118":-0.12114986777305603,"119":-0.7931467890739441,"120":-0.6927154064178467,"121":0.2288363128900528,"122":0.12014754861593246,"123":-0.7829558849334717,"124":-0.26818156242370605,"125":-0.3118543326854706,"126":0.9576707482337952,"127":-0.7766821980476379,"128":-0.318256676197052,"129":0.24638605117797852,"130":-0.7434463500976562,"131":0.3167180120944977,"132":-0.29271161556243896,"133":0.0703386515378952,"134":0.7064072489738464,"135":0.895173192024231,"136":-0.9403632879257202,"137":-0.717014491558075,"138":0.2957950830459595,"139":-0.8088276386260986,"140":0.4461837410926819,"141":-0.4772965610027313,"142":-0.27191904187202454,"143":0.4008543789386749,"144":-0.30092495679855347,"145":0.36720386147499084,"146":0.18911170959472656,"147":0.4311158061027527,"148":-0.3662637174129486,"149":-0.19476737082004547,"150":0.3723004460334778,"151":-0.46106472611427307,"152":0.6399797797203064,"153":-0.23076224327087402,"154":-0.6114136576652527,"155":0.11312395334243774,"156":-0.023446321487426758,"157":0.3276408910751343,"158":-0.5266388654708862,"159":0.5391432046890259,"160":0.011121398769319057,"161":-0.5729731917381287,"162":0.288514643907547,"163":0.5587953329086304,"164":0.3045870065689087,"165":-0.615334689617157,"166":-0.02353459782898426,"167":0.21758806705474854,"168":-0.4973756968975067,"169":-1.4608100652694702,"170":0.02211628295481205,"171":-0.5222271680831909,"172":0.9498828649520874,"173":0.4134403169155121,"174":-0.040469203144311905,"175":-0.3056715130805969,"176":0.16810229420661926,"177":0.523739755153656,"178":-0.9318053722381592,"179":0.025900492444634438,"180":-0.07473591715097427,"181":0.9486738443374634,"182":-0.3958068788051605,"183":-0.2135615348815918,"184":-0.6918493509292603,"185":-0.3227899372577667,"186":0.24363605678081512,"187":-0.036588095128536224,"188":-0.163346529006958,"189":0.96059250831604,"190":0.006394132040441036,"191":0.8915367722511292,"192":-0.8825339674949646,"193":-0.4490302503108978,"194":0.26650041341781616,"195":0.3804672956466675,"196":-0.4348463714122772,"197":0.05520671233534813,"198":0.9141405820846558,"199":-0.4402424693107605,"200":-0.029727529734373093,"201":-0.09052059799432755,"202":0.9718888998031616,"203":0.7519324421882629,"204":1.0979417562484741,"205":-0.4989800751209259,"206":-0.2161359339952469,"207":0.3830794095993042,"208":-0.3763134181499481,"209":-0.8307560086250305,"210":-0.27417242527008057,"211":-0.9625986218452454,"212":0.6584171652793884,"213":1.0852093696594238,"214":0.6631702780723572,"215":-0.1644446849822998,"216":0.35443949699401855,"217":-0.024868004024028778,"218":-0.5034905076026917,"219":-0.7066419124603271,"220":0.23380878567695618,"221":1.1235029697418213,"222":-0.4758356809616089,"223":0.09535811096429825,"224":-0.6614131927490234,"225":0.471355140209198,"226":0.1138666570186615,"227":0.1588132232427597,"228":0.31518465280532837,"229":1.1420583724975586,"230":-0.02420077659189701,"231":0.8684118986129761,"232":-0.9876025319099426,"233":-0.44581353664398193,"234":0.18589134514331818,"235":0.4425620436668396,"236":-0.23394085466861725,"237":0.018867699429392815,"238":1.0080702304840088,"239":-0.2954951226711273,"240":0.33444443345069885,"241":1.0499035120010376,"242":-0.5738645792007446,"243":0.30916085839271545,"244":-0.652773380279541,"245":0.5587584376335144,"246":0.05588994920253754,"247":0.3255927860736847,"248":0.19044078886508942,"249":1.1980427503585815,"250":0.2249821573495865,"251":0.9181593060493469,"252":-0.942661464214325,"253":-0.5531484484672546,"254":0.14049552381038666,"255":0.5641278624534607,"256":-0.4765644371509552,"257":0.0949687510728836,"258":1.0506407022476196,"259":-0.2713366150856018,"260":-0.4881865084171295,"261":0.4133812487125397,"262":0.8198809027671814,"263":-0.37264660000801086,"264":0.5679625272750854,"265":0.8968121409416199,"266":0.15546855330467224,"267":-0.09396636486053467,"268":1.293594241142273,"269":0.20361192524433136,"270":1.2043633460998535,"271":0.4125092625617981,"272":-0.31195738911628723,"273":0.825173556804657,"274":0.6707686185836792,"275":0.16086708009243011,"276":-0.08976265043020248,"277":-0.28158676624298096,"278":0.3430667817592621,"279":-0.6460426449775696,"280":0.3913216292858124,"281":0.27200397849082947,"282":1.445755124092102,"283":0.47450125217437744,"284":0.6275557279586792,"285":-0.23386456072330475,"286":0.3078693151473999,"287":0.3225839138031006,"288":-0.6602566242218018,"289":0.30609458684921265,"290":-0.34331151843070984,"291":0.32254669070243835,"292":-0.311265230178833,"293":1.37635338306427,"294":0.310990571975708,"295":0.27531418204307556,"296":-0.34863823652267456,"297":-0.3724057376384735,"298":0.2592611610889435,"299":-0.2642412781715393,"300":-0.684005618095398,"301":0.4190608561038971,"302":0.041991956532001495,"303":-0.7600574493408203,"304":-0.15892383456230164,"305":-0.528810977935791,"306":0.9385648965835571,"307":-0.8378685712814331,"308":-0.1917538195848465,"309":0.40128347277641296,"310":-0.6164877414703369,"311":0.28203997015953064,"312":-0.3615252375602722,"313":0.050720591098070145,"314":0.7456191182136536,"315":0.8139325380325317,"316":-0.8977042436599731,"317":-0.7595785856246948,"318":0.3176421523094177,"319":-0.8796809315681458,"320":-0.6572989821434021,"321":0.37680375576019287,"322":0.022231413051486015,"323":-0.8998982310295105,"324":-0.10204782336950302,"325":-0.14462260901927948,"326":1.1224792003631592,"327":-0.5095252990722656,"328":-0.41313549876213074,"329":0.21323254704475403,"330":0.008060920983552933,"331":0.3437223434448242,"332":-0.25682178139686584,"333":0.010355202481150627,"334":0.7208603024482727,"335":1.0116103887557983,"336":-1.0722976922988892,"337":-0.601722776889801,"338":0.4135766625404358,"339":-0.9197251200675964,"340":0.06880491226911545,"341":-0.08797942101955414,"342":1.376780390739441,"343":0.04075432941317558,"344":1.3738631010055542,"345":0.3750164806842804,"346":0.43965455889701843,"347":0.35823047161102295,"348":0.15408487617969513,"349":0.2118055671453476,"350":0.41237327456474304,"351":0.28766006231307983,"352":-0.12398377060890198,"353":1.3548479080200195,"354":-0.1799963414669037,"355":-0.16630861163139343,"356":0.2088475376367569,"357":-2.0207316875457764,"358":0.2253478616476059,"359":0.17196880280971527,"360":0.32561495900154114,"361":1.1255035400390625,"362":-0.46264025568962097,"363":0.3199082314968109,"364":-0.816238522529602,"365":0.588874101638794,"366":-0.053550947457551956,"367":0.17633897066116333,"368":0.1508808434009552,"369":1.2134982347488403,"370":0.41823214292526245,"371":1.0472913980484009,"372":-0.9520471692085266,"373":-0.5312179923057556,"374":0.17773683369159698,"375":0.49012407660484314,"376":-0.6401379108428955,"377":-0.06064398214221001,"378":0.927797794342041,"379":-0.28671202063560486,"380":0.462321400642395,"381":0.4254087507724762,"382":1.0275732278823853,"383":0.50784832239151,"384":0.24885767698287964,"385":-0.31421801447868347,"386":0.3763127028942108,"387":0.4653111398220062,"388":-0.6477304100990295,"389":0.3097613751888275,"390":-0.2934243977069855,"391":0.3369279205799103,"392":-0.40958476066589355,"393":1.1303592920303345,"394":0.2956555485725403,"395":0.3279285430908203,"396":-0.432227224111557,"397":-0.22736497223377228,"398":0.36988565325737,"399":-0.3512486219406128}},"forgetBias":{"rows":20,"columns":1,"weights":{"0":0,"1":0,"2":0,"3":0,"4":0,"5":0,"6":0,"7":0,"8":0,"9":0,"10":0,"11":0,"12":0,"13":0,"14":0,"15":0,"16":0,"17":0,"18":0,"19":0}},"outputMatrix":{"rows":20,"columns":1,"weights":{"0":-0.3762144446372986,"1":1.0028785467147827,"2":0.06185488775372505,"3":-0.58356773853302,"4":-0.24376602470874786,"5":-0.2437417060136795,"6":0.0032165246084332466,"7":-0.7445076704025269,"8":-0.6157686710357666,"9":0.5973308682441711,"10":-0.08535593003034592,"11":0.6036956906318665,"12":0.678031861782074,"13":0.04452360421419144,"14":0.4092617928981781,"15":0.6904338002204895,"16":0.41216352581977844,"17":-0.5202316045761108,"18":0.638396680355072,"19":0.37919849157333374}},"outputHidden":{"rows":20,"columns":20,"weights":{"0":-0.034769922494888306,"1":-1.1943683624267578,"2":0.10194793343544006,"3":-0.08436132222414017,"4":0.22924110293388367,"5":0.7119812369346619,"6":-0.47747379541397095,"7":0.9617986083030701,"8":0.320364385843277,"9":-0.9110589027404785,"10":0.8349828124046326,"11":-1.1570218801498413,"12":1.202273964881897,"13":0.17914476990699768,"14":-0.5498995184898376,"15":-0.4082290828227997,"16":0.3863008916378021,"17":0.4221430718898773,"18":-1.1911125183105469,"19":0.6720800399780273,"20":0.8222268223762512,"21":0.9059388041496277,"22":-0.6360094547271729,"23":0.7786169648170471,"24":-1.6893229484558105,"25":0.8392212986946106,"26":-0.12118805199861526,"27":0.6672347187995911,"28":0.08504326641559601,"29":0.9371368885040283,"30":0.43890509009361267,"31":0.777817964553833,"32":-0.880392849445343,"33":-0.6451101303100586,"34":0.06431423127651215,"35":0.30170589685440063,"36":-0.43493008613586426,"37":0.5895960927009583,"38":0.7430956959724426,"39":-0.1691054105758667,"40":-0.1981261819601059,"41":0.4233211576938629,"42":0.8149354457855225,"43":-0.09855698049068451,"44":0.2536078691482544,"45":0.6714842915534973,"46":0.4970734119415283,"47":0.14674341678619385,"48":0.8776569366455078,"49":0.3180510997772217,"50":0.8185362815856934,"51":0.43372929096221924,"52":-0.37253737449645996,"53":0.8325788378715515,"54":1.063408374786377,"55":0.4081285893917084,"56":-0.39343494176864624,"57":-0.032779254019260406,"58":0.5043081641197205,"59":-0.699708104133606,"60":0.1873283088207245,"61":-1.3107354640960693,"62":0.07387669384479523,"63":0.2987610995769501,"64":-0.007914606481790543,"65":1.1289523839950562,"66":-0.5621404051780701,"67":1.0578480958938599,"68":0.3763536214828491,"69":-0.722266674041748,"70":1.0394816398620605,"71":-1.1944165229797363,"72":1.363215446472168,"73":0.10401958972215652,"74":-0.6062588095664978,"75":-0.4640689194202423,"76":0.3564718961715698,"77":0.3103210926055908,"78":-1.3453210592269897,"79":0.9008916616439819,"80":-0.35022568702697754,"81":0.4151856601238251,"82":0.8959954380989075,"83":-0.4391494691371918,"84":0.5524044632911682,"85":1.1193984746932983,"86":0.5454220771789551,"87":0.2375638484954834,"88":0.7088053226470947,"89":0.079068124294281,"90":1.3244768381118774,"91":0.5561310052871704,"92":-0.32531777024269104,"93":0.8013296723365784,"94":0.48128318786621094,"95":0.12954860925674438,"96":-0.3760966658592224,"97":-0.7040515542030334,"98":0.4541144371032715,"99":-0.3777724802494049,"100":-0.4279949367046356,"101":-0.7986838817596436,"102":0.9186187982559204,"103":-0.04413267970085144,"104":0.9413352012634277,"105":-1.4418728351593018,"106":-0.6112977266311646,"107":-0.09119672328233719,"108":-0.7807977795600891,"109":-1.2344411611557007,"110":-1.3732541799545288,"111":-0.8213162422180176,"112":0.8985645174980164,"113":0.83967524766922,"114":-0.024133870378136635,"115":-0.7049270868301392,"116":1.330809473991394,"117":-0.2081427276134491,"118":-0.8981630206108093,"119":-0.07442644983530045,"120":-0.788183867931366,"121":0.0056151715107262135,"122":-0.014271505177021027,"123":-0.7928492426872253,"124":-0.31899067759513855,"125":-0.6581776142120361,"126":1.1144684553146362,"127":-0.5941080451011658,"128":-0.24774302542209625,"129":0.14549221098423004,"130":-1.1395838260650635,"131":0.22109965980052948,"132":-0.19013215601444244,"133":0.009159204550087452,"134":0.5826765298843384,"135":0.6992291212081909,"136":-0.5307523012161255,"137":-1.1041028499603271,"138":0.026351043954491615,"139":-0.8120397925376892,"140":0.5187615156173706,"141":-0.5798794031143188,"142":0.11328518390655518,"143":0.41845032572746277,"144":0.0750897079706192,"145":0.4044193625450134,"146":-0.20890402793884277,"147":0.40054821968078613,"148":-0.17487195134162903,"149":-0.48542264103889465,"150":0.6637964844703674,"151":-0.7012948989868164,"152":0.6610197424888611,"153":0.10255220532417297,"154":-0.6437913775444031,"155":-0.23760145902633667,"156":0.21521280705928802,"157":0.3139173686504364,"158":-0.5305379033088684,"159":0.6886172294616699,"160":0.23496554791927338,"161":-1.1047881841659546,"162":0.013903322629630566,"163":0.6527133584022522,"164":0.1892947554588318,"165":-0.6944699287414551,"166":-0.3646431565284729,"167":0.04067402333021164,"168":-0.7686634659767151,"169":-1.697737455368042,"170":0.05313217267394066,"171":-0.9737879633903503,"172":1.1803210973739624,"173":0.06565474718809128,"174":-0.602232038974762,"175":-0.7977348566055298,"176":0.5322772860527039,"177":0.633707582950592,"178":-1.1163971424102783,"179":0.7637524008750916,"180":-0.17958715558052063,"181":0.813204288482666,"182":-0.30995437502861023,"183":-0.08892770111560822,"184":-0.46267199516296387,"185":-0.46037399768829346,"186":0.26665931940078735,"187":-0.09018588811159134,"188":-0.2928093373775482,"189":0.9114308953285217,"190":-0.030244549736380577,"191":0.9301192760467529,"192":-0.8247714638710022,"193":-0.34369146823883057,"194":0.48236706852912903,"195":0.47415846586227417,"196":-0.4409007728099823,"197":0.06144265830516815,"198":0.9101685285568237,"199":-0.6901760101318359,"200":-0.2389170378446579,"201":-1.2248330116271973,"202":0.9089047908782959,"203":0.6872709393501282,"204":0.8122438788414001,"205":-0.5605379343032837,"206":-0.8191657662391663,"207":0.6211742162704468,"208":-0.07540426403284073,"209":-0.8553640842437744,"210":-0.1986633688211441,"211":-1.2887532711029053,"212":1.2638548612594604,"213":0.9174654483795166,"214":0.20918536186218262,"215":-0.4887863099575043,"216":0.8824841380119324,"217":-0.06575322151184082,"218":-1.016580581665039,"219":-0.05515923351049423,"220":0.4888932704925537,"221":0.8678804636001587,"222":-0.650284469127655,"223":0.5847120881080627,"224":-0.8702943921089172,"225":-0.15481136739253998,"226":0.1301269233226776,"227":0.5411031246185303,"228":-0.043378252536058426,"229":1.0607918500900269,"230":-0.29386335611343384,"231":0.7552726864814758,"232":-0.8688111901283264,"233":-0.5930215716362,"234":0.4028190076351166,"235":0.6531003713607788,"236":-0.09418939054012299,"237":-0.012870254926383495,"238":0.8987762331962585,"239":-0.4851401746273041,"240":0.4230976700782776,"241":1.1424903869628906,"242":-1.0157065391540527,"243":0.3617384135723114,"244":-1.3100050687789917,"245":0.5546516180038452,"246":0.234748974442482,"247":0.46360671520233154,"248":-0.1803768128156662,"249":0.692922055721283,"250":0.5421461462974548,"251":0.8984060883522034,"252":-0.9097257256507874,"253":-0.9499841928482056,"254":0.19155801832675934,"255":0.20254430174827576,"256":-0.27294087409973145,"257":0.5284607410430908,"258":0.719393789768219,"259":-0.23098479211330414,"260":-0.12866514921188354,"261":0.43771928548812866,"262":0.9215959310531616,"263":-0.0968833640217781,"264":0.395520955324173,"265":0.48782703280448914,"266":0.4372538626194,"267":0.13053403794765472,"268":0.6678104996681213,"269":0.3413689434528351,"270":0.6625378131866455,"271":0.310739666223526,"272":-0.34876102209091187,"273":1.0525003671646118,"274":0.8711317777633667,"275":0.3917030394077301,"276":-0.18711116909980774,"277":-0.26969411969184875,"278":0.40974119305610657,"279":-0.6014078855514526,"280":0.4282670021057129,"281":0.4615144729614258,"282":1.3915494680404663,"283":0.42922911047935486,"284":0.7167109251022339,"285":-0.2017037272453308,"286":0.3201656639575958,"287":0.3191111981868744,"288":-0.8144429922103882,"289":0.36166948080062866,"290":-0.5285634398460388,"291":0.4255198538303375,"292":-0.5101735591888428,"293":1.437082052230835,"294":0.22552677989006042,"295":0.3901282548904419,"296":-0.5272849798202515,"297":-0.41822198033332825,"298":0.48218870162963867,"299":-0.3673977553844452,"300":-0.7017284631729126,"301":0.4706276059150696,"302":0.07154198735952377,"303":-0.7597130537033081,"304":-0.23751644790172577,"305":-0.6993602514266968,"306":0.85246342420578,"307":-0.5166417956352234,"308":-0.22101664543151855,"309":0.536532998085022,"310":-0.6302794814109802,"311":0.33474409580230713,"312":-0.39903005957603455,"313":0.10645068436861038,"314":0.7006570100784302,"315":0.9059725403785706,"316":-0.9245216846466064,"317":-0.7448193430900574,"318":0.44220638275146484,"319":-0.8093185424804688,"320":-0.7577272057533264,"321":0.6980388164520264,"322":-0.02163240872323513,"323":-0.9501634836196899,"324":-0.13608600199222565,"325":-0.49842822551727295,"326":0.7812476754188538,"327":-0.6048290133476257,"328":-0.32487958669662476,"329":0.6635020971298218,"330":-0.17987842857837677,"331":0.37852394580841064,"332":-0.4065372049808502,"333":0.027612127363681793,"334":0.8457865118980408,"335":1.132063627243042,"336":-1.1975128650665283,"337":-0.43886029720306396,"338":0.6616657376289368,"339":-0.8718404173851013,"340":-0.008387058973312378,"341":0.12354221194982529,"342":1.5823945999145508,"343":0.1844019740819931,"344":1.756075143814087,"345":0.275491863489151,"346":0.4225931465625763,"347":0.24006201326847076,"348":0.22251497209072113,"349":0.10838183760643005,"350":0.25989431142807007,"351":0.32797834277153015,"352":-0.2694677710533142,"353":1.4456676244735718,"354":0.039307851344347,"355":0.1328916996717453,"356":-0.1597876399755478,"357":-0.5782766342163086,"358":0.3247848451137543,"359":0.015542084351181984,"360":0.5459816455841064,"361":0.9987661838531494,"362":-1.095946192741394,"363":0.45312121510505676,"364":-1.3948105573654175,"365":0.3966768980026245,"366":0.3076673746109009,"367":0.48088741302490234,"368":-0.15212512016296387,"369":0.9154931902885437,"370":0.7690988183021545,"371":0.8375099897384644,"372":-0.9631006717681885,"373":-0.9439353942871094,"374":0.08839161694049835,"375":0.34345582127571106,"376":-0.37183383107185364,"377":0.2724546790122986,"378":0.7906800508499146,"379":-0.2656138241291046,"380":0.4881071448326111,"381":0.23248130083084106,"382":1.4005095958709717,"383":0.590807318687439,"384":0.6205304861068726,"385":-0.1004466563463211,"386":0.2532931864261627,"387":0.4495498836040497,"388":-0.7634167671203613,"389":0.38019049167633057,"390":-0.2569255828857422,"391":0.3665570616722107,"392":-0.31111714243888855,"393":1.2650206089019775,"394":0.24628080427646637,"395":0.33164921402931213,"396":-0.3386703431606293,"397":-0.1551554948091507,"398":0.34848129749298096,"399":-0.28059571981430054}},"outputBias":{"rows":20,"columns":1,"weights":{"0":0.6741210222244263,"1":-0.4136168360710144,"2":2.6811623573303223,"3":1.5394591093063354,"4":3.3754284381866455,"5":0.6402968764305115,"6":0.19568990170955658,"7":-0.5270918011665344,"8":0.9800052642822266,"9":-0.18129770457744598,"10":-0.06268374621868134,"11":-0.13288937509059906,"12":-0.512942910194397,"13":2.518944263458252,"14":0.7963082194328308,"15":-0.5945035815238953,"16":-0.793630838394165,"17":0.06752251833677292,"18":-0.5485862493515015,"19":0.3725265562534332}},"cellActivationMatrix":{"rows":20,"columns":1,"weights":{"0":-0.011063781566917896,"1":0.42003536224365234,"2":-0.008591126650571823,"3":-0.01770237646996975,"4":0.02123280055820942,"5":-0.0864727571606636,"6":-0.1233908161520958,"7":0.273885041475296,"8":0.014273268170654774,"9":0.15929698944091797,"10":-0.07204130291938782,"11":0.03356460481882095,"12":-0.15851369500160217,"13":-0.041118182241916656,"14":0.04931074380874634,"15":0.0645754486322403,"16":-0.032240431755781174,"17":0.004775066860020161,"18":0.13038919866085052,"19":-0.5328421592712402}},"cellActivationHidden":{"rows":20,"columns":20,"weights":{"0":-0.891977071762085,"1":0.360158771276474,"2":-0.6407092809677124,"3":-0.881990373134613,"4":-0.6214272379875183,"5":0.049338798969984055,"6":-0.05430370941758156,"7":-0.41237035393714905,"8":-0.03798893094062805,"9":0.3893938660621643,"10":-0.08825907856225967,"11":0.3043741285800934,"12":-0.34509479999542236,"13":-0.5578389763832092,"14":-0.21042132377624512,"15":-0.013215617276728153,"16":0.020663700997829437,"17":0.8572039604187012,"18":0.40907976031303406,"19":0.17002330720424652,"20":-0.4255845248699188,"21":0.11471088230609894,"22":-0.21762362122535706,"23":-0.5297010540962219,"24":-0.16483356058597565,"25":0.011768123134970665,"26":0.49018731713294983,"27":-0.27739250659942627,"28":-0.8466048836708069,"29":0.13319766521453857,"30":-0.36395618319511414,"31":0.14690275490283966,"32":-0.03020748309791088,"33":-0.11943656951189041,"34":0.3270614445209503,"35":0.7973968386650085,"36":-0.6688946485519409,"37":-0.22764787077903748,"38":0.16886886954307556,"39":-0.5598611831665039,"40":-0.6855028867721558,"41":0.3219597339630127,"42":-0.012298120185732841,"43":-0.55617755651474,"44":-0.17068195343017578,"45":-0.5393142104148865,"46":0.03603772819042206,"47":-0.5056037902832031,"48":-0.02828049100935459,"49":0.2926669120788574,"50":-0.4532095789909363,"51":0.35507437586784363,"52":-0.37057456374168396,"53":-0.04436607286334038,"54":0.7276495099067688,"55":0.07169371098279953,"56":-0.21173281967639923,"57":0.44182631373405457,"58":0.345124751329422,"59":-0.7437704801559448,"60":-0.7950789928436279,"61":0.4448758661746979,"62":-0.6542788147926331,"63":-0.798445999622345,"64":-0.645646870136261,"65":0.07177426666021347,"66":-0.16050469875335693,"67":-0.5874173641204834,"68":0.27436283230781555,"69":0.46171265840530396,"70":-0.0595492459833622,"71":0.43193331360816956,"72":-0.44454115629196167,"73":-0.5186373591423035,"74":-0.2175971120595932,"75":-0.2931244373321533,"76":-0.0022386102937161922,"77":0.4215015172958374,"78":0.43834424018859863,"79":0.15534918010234833,"80":-0.676934540271759,"81":0.4615684151649475,"82":-0.15190373361110687,"83":-0.5910967588424683,"84":-0.19558894634246826,"85":-0.21919313073158264,"86":-0.2085210382938385,"87":-0.49185359477996826,"88":-0.062050096690654755,"89":0.38830822706222534,"90":-0.24525782465934753,"91":0.5165295600891113,"92":-0.3681555986404419,"93":-0.1297335922718048,"94":0.7346610426902771,"95":-0.12284931540489197,"96":-0.0980943888425827,"97":0.463743656873703,"98":0.44077929854393005,"99":-0.5657067894935608,"100":0.11731987446546555,"101":0.4870527386665344,"102":-1.0964239835739136,"103":0.027646495029330254,"104":-1.0147188901901245,"105":0.4301591217517853,"106":0.5086719989776611,"107":-0.19198818504810333,"108":-0.44080597162246704,"109":0.3399069905281067,"110":0.15393264591693878,"111":0.6354371905326843,"112":-0.48277804255485535,"113":-0.9783375859260559,"114":-0.538529634475708,"115":-0.06173551082611084,"116":-0.5113652348518372,"117":1.031022071838379,"118":0.367428183555603,"119":0.5366740822792053,"120":-0.18376541137695312,"121":0.178275004029274,"122":-0.33593568205833435,"123":-0.20894643664360046,"124":-0.3532480001449585,"125":0.18904182314872742,"126":0.5242348909378052,"127":0.005923007149249315,"128":-0.7714497447013855,"129":0.23440131545066833,"130":-0.2729340195655823,"131":-0.0029492233879864216,"132":-0.17516285181045532,"133":-0.41753727197647095,"134":0.5157514214515686,"135":0.34506312012672424,"136":-0.5552212595939636,"137":0.7111353278160095,"138":0.0923621654510498,"139":-0.3170367181301117,"140":-0.6620940566062927,"141":0.4587186276912689,"142":-0.16995912790298462,"143":-0.5385481715202332,"144":-0.2870914041996002,"145":-0.659883975982666,"146":-0.26751628518104553,"147":-0.5419296622276306,"148":0.04414739832282066,"149":0.3893281817436218,"150":-0.560495138168335,"151":0.40805694460868835,"152":-0.4343404173851013,"153":-0.20423567295074463,"154":0.23674681782722473,"155":-0.27497604489326477,"156":0.06410220265388489,"157":0.1300077885389328,"158":0.46106213331222534,"159":-0.238443061709404,"160":0.2688124179840088,"161":0.8145615458488464,"162":-0.5707798600196838,"163":-0.13622143864631653,"164":-0.5136526823043823,"165":-0.05320590361952782,"166":0.2889389395713806,"167":-0.4389953911304474,"168":-0.06528676301240921,"169":0.9845702648162842,"170":0.023962335661053658,"171":1.0074657201766968,"172":-0.7813609838485718,"173":-0.5399587154388428,"174":0.13968831300735474,"175":0.29874664545059204,"176":-0.3495974540710449,"177":0.3539919853210449,"178":0.8829423785209656,"179":-0.057359661906957626,"180":-0.29698285460472107,"181":0.3146580457687378,"182":-0.254711776971817,"183":-0.3611712157726288,"184":-0.27156808972358704,"185":-0.34993964433670044,"186":0.46614500880241394,"187":-0.018430663272738457,"188":-0.8254852890968323,"189":0.27552586793899536,"190":0.05608357861638069,"191":0.19565041363239288,"192":-0.15878884494304657,"193":-0.34618905186653137,"194":0.309462308883667,"195":0.5529439449310303,"196":-0.7239943146705627,"197":0.07931697368621826,"198":0.13235941529273987,"199":-0.24733509123325348,"200":0.3276654779911041,"201":1.085842251777649,"202":-0.6842739582061768,"203":-0.06693343818187714,"204":-0.7095514535903931,"205":-0.24334338307380676,"206":0.16713643074035645,"207":-0.31981274485588074,"208":-0.026559406891465187,"209":0.9890152215957642,"210":0.04059114679694176,"211":0.551856279373169,"212":-0.7142536640167236,"213":-0.6681398153305054,"214":-0.08154769986867905,"215":0.25158122181892395,"216":-0.5744808912277222,"217":0.26140010356903076,"218":0.8780680894851685,"219":0.16258452832698822,"220":-0.33310383558273315,"221":0.5193049311637878,"222":-0.4426954388618469,"223":-0.33736664056777954,"224":-0.4004580080509186,"225":0.293257474899292,"226":0.7873963117599487,"227":-0.04806772992014885,"228":-0.7295323014259338,"229":0.015789691358804703,"230":0.4658520519733429,"231":-0.10070324689149857,"232":-0.32655876874923706,"233":-0.46225595474243164,"234":0.1797332614660263,"235":0.6324125528335571,"236":-0.8395999670028687,"237":0.02090492472052574,"238":0.3349243104457855,"239":-0.19130173325538635,"240":0.24616016447544098,"241":-0.17721353471279144,"242":0.04585081338882446,"243":0.25387489795684814,"244":0.05720928683876991,"245":0.07019484788179398,"246":-0.6732096672058105,"247":0.06641802191734314,"248":0.7595100402832031,"249":-0.1936454325914383,"250":0.04538555443286896,"251":-0.018437951803207397,"252":0.12491826713085175,"253":0.08457647264003754,"254":-0.3153713345527649,"255":-0.8439496159553528,"256":1.0494626760482788,"257":0.17638374865055084,"258":-0.14059071242809296,"259":0.45575499534606934,"260":-0.7084739208221436,"261":0.40212881565093994,"262":-0.15476065874099731,"263":-0.6308295726776123,"264":-0.16161362826824188,"265":-0.5912083983421326,"266":-0.01688508130609989,"267":-0.4490961730480194,"268":-0.07738852500915527,"269":0.31995058059692383,"270":-0.4358082711696625,"271":0.3497236967086792,"272":-0.46419963240623474,"273":-0.15168918669223785,"274":0.9266536831855774,"275":-0.04144899174571037,"276":0.02170749381184578,"277":0.4233158826828003,"278":0.39524412155151367,"279":-0.5154323577880859,"280":-0.35174641013145447,"281":0.15244418382644653,"282":-0.02355126291513443,"283":-0.44994497299194336,"284":-0.09147857129573822,"285":-0.7013641595840454,"286":0.7086697816848755,"287":-0.2429938018321991,"288":-0.4978720247745514,"289":0.09767027944326401,"290":-0.37687334418296814,"291":0.05963457003235817,"292":-0.20825427770614624,"293":-0.0294165201485157,"294":1.018334150314331,"295":0.704890787601471,"296":-0.6306265592575073,"297":-0.19612731039524078,"298":0.250860333442688,"299":-0.9275678992271423,"300":-0.5047938227653503,"301":0.10048463940620422,"302":-0.27451661229133606,"303":-0.5762540698051453,"304":-0.33074942231178284,"305":-0.3376219570636749,"306":0.40658584237098694,"307":-0.00921260192990303,"308":-0.6730622053146362,"309":0.3514452278614044,"310":-0.34456565976142883,"311":0.2671246826648712,"312":-0.18228201568126678,"313":-0.21647129952907562,"314":0.7160521745681763,"315":0.5062445998191833,"316":-0.41174235939979553,"317":0.2731262445449829,"318":0.23781782388687134,"319":-0.4826585054397583,"320":0.22663770616054535,"321":-0.20074500143527985,"322":0.2797479033470154,"323":0.2761049270629883,"324":0.356152206659317,"325":0.1320972889661789,"326":-0.3811355531215668,"327":0.11346790939569473,"328":0.4775064289569855,"329":-0.48138320446014404,"330":-0.15600217878818512,"331":-0.20510265231132507,"332":0.3153403699398041,"333":0.385709673166275,"334":-0.6507949829101562,"335":-0.5910513401031494,"336":0.46669691801071167,"337":-0.0694139301776886,"338":-0.4404841661453247,"339":0.39461448788642883,"340":0.08263362944126129,"341":-0.3773498833179474,"342":0.3186207413673401,"343":0.05078696459531784,"344":0.28122538328170776,"345":-0.2955687940120697,"346":-0.3801463544368744,"347":0.2503966987133026,"348":-0.15904489159584045,"349":-0.7156698703765869,"350":-0.0903128832578659,"351":-0.7860104441642761,"352":0.33345723152160645,"353":0.3357195258140564,"354":-1.2035775184631348,"355":-0.38001731038093567,"356":0.2894487977027893,"357":-0.1948481947183609,"358":-0.27451103925704956,"359":0.9711993336677551,"360":-0.3588321805000305,"361":0.22671575844287872,"362":-0.245506152510643,"363":-0.2589477300643921,"364":-0.2869916558265686,"365":0.051341500133275986,"366":0.6396130919456482,"367":-0.17749090492725372,"368":-0.7035050392150879,"369":0.17666426301002502,"370":0.16178341209888458,"371":0.019451411440968513,"372":-0.03635190427303314,"373":-0.2524181008338928,"374":0.41611403226852417,"375":0.7209838032722473,"376":-1.0574367046356201,"377":-0.03753013536334038,"378":0.1788463294506073,"379":-0.5099769830703735,"380":0.4041632115840912,"381":-0.15453940629959106,"382":-0.02317815274000168,"383":0.31134033203125,"384":-0.08750895410776138,"385":0.6919809579849243,"386":-0.7515518069267273,"387":0.1575969010591507,"388":0.6051492094993591,"389":-0.1582258641719818,"390":0.5677210092544556,"391":-0.19675284624099731,"392":0.1655121147632599,"393":-0.034633900970220566,"394":-0.8140339255332947,"395":-0.8167266845703125,"396":0.7255225777626038,"397":0.31350210309028625,"398":-0.25803112983703613,"399":0.9118755459785461}},"cellActivationBias":{"rows":20,"columns":1,"weights":{"0":0.9359684586524963,"1":-0.9936312437057495,"2":1.9734666347503662,"3":1.3466676473617554,"4":2.311863899230957,"5":-0.15340672433376312,"6":-0.4320214092731476,"7":-0.29579058289527893,"8":1.4036179780960083,"9":0.27245357632637024,"10":0.7801242470741272,"11":0.17987370491027832,"12":0.44931676983833313,"13":1.967147707939148,"14":0.8417729735374451,"15":-0.3175743520259857,"16":0.2732504904270172,"17":-0.2926405668258667,"18":-0.4032779037952423,"19":-0.4877815544605255}}}],"outputConnector":{"rows":1,"columns":20,"weights":{"0":-0.08714859187602997,"1":0.03954636678099632,"2":0.08373145759105682,"3":-0.031572215259075165,"4":0.055110808461904526,"5":-0.040452443063259125,"6":0.1477382481098175,"7":-0.056485772132873535,"8":-0.00029707630164921284,"9":0.05165698379278183,"10":-0.030987683683633804,"11":0.040816329419612885,"12":-0.037627559155225754,"13":0.08684943616390228,"14":0.3777575194835663,"15":0.0806717798113823,"16":-0.08748448640108109,"17":0.6513944864273071,"18":0.0389217734336853,"19":-0.1439618021249771}},"output":{"rows":1,"columns":1,"weights":{"0":1.8447225093841553}},"inputLookup":null,"inputLookupLength":null,"outputLookup":null,"outputLookupLength":null}