{"type":"LSTMTimeStep","options":{"inputSize":1,"hiddenLayers":[20],"outputSize":1,"decayRate":0.999,"smoothEps":1e-8,"regc":0.000001,"clipval":5},"hiddenLayers":[{"inputMatrix":{"rows":20,"columns":1,"weights":{"0":1.3052234649658203,"1":0.06819149851799011,"2":1.062691569328308,"3":-0.7238482236862183,"4":-0.22476352751255035,"5":0.5895785093307495,"6":0.8615468740463257,"7":-0.00951558630913496,"8":-0.3711596429347992,"9":-0.08977480977773666,"10":0.28042423725128174,"11":-0.26293012499809265,"12":-0.5714590549468994,"13":0.7779340744018555,"14":0.03476330637931824,"15":0.35656172037124634,"16":1.093511939048767,"17":0.5421925187110901,"18":0.04994796961545944,"19":-1.6371327638626099}},"inputHidden":{"rows":20,"columns":20,"weights":{"0":-0.5241539478302002,"1":0.5753472447395325,"2":0.12259633839130402,"3":0.1662009358406067,"4":-1.0259253978729248,"5":-0.2016739398241043,"6":0.28245803713798523,"7":-0.37575921416282654,"8":-0.47910675406455994,"9":0.6513816714286804,"10":-0.44302335381507874,"11":-1.055843710899353,"12":-0.5696901082992554,"13":0.22112376987934113,"14":0.7732611298561096,"15":0.00741219287738204,"16":0.13314199447631836,"17":-0.5325859189033508,"18":0.8173908591270447,"19":3.305204153060913,"20":-0.7535423040390015,"21":0.5751923322677612,"22":0.19132739305496216,"23":0.7362977266311646,"24":-0.7188190221786499,"25":0.8683421015739441,"26":1.2623203992843628,"27":-0.6412978172302246,"28":1.038325548171997,"29":0.7163276672363281,"30":-1.2154804468154907,"31":-0.6694889664649963,"32":0.16172750294208527,"33":-0.3931012749671936,"34":-0.11411105841398239,"35":0.2704032063484192,"36":1.3041249513626099,"37":-1.3109363317489624,"38":0.5660549402236938,"39":0.49972155690193176,"40":1.0883229970932007,"41":0.7874795794487,"42":-0.8174551725387573,"43":0.7233462333679199,"44":-1.00674307346344,"45":-1.2225450277328491,"46":-0.6445123553276062,"47":-0.7731131911277771,"48":0.15097974240779877,"49":0.8834426403045654,"50":-0.769254207611084,"51":-0.8332308530807495,"52":-0.11065767705440521,"53":1.4510473012924194,"54":-0.733788788318634,"55":0.8316267728805542,"56":0.5882945656776428,"57":-0.7525014281272888,"58":0.7039394974708557,"59":0.8510122895240784,"60":-1.073896884918213,"61":-0.24304844439029694,"62":0.888795793056488,"63":-0.26021620631217957,"64":0.02606952004134655,"65":0.6583442687988281,"66":0.8941288590431213,"67":0.2810263931751251,"68":0.35177886486053467,"69":-0.1556132286787033,"70":0.49393922090530396,"71":-0.05379064753651619,"72":-0.35841241478919983,"73":-0.9746220111846924,"74":1.0729432106018066,"75":-0.6661604046821594,"76":-0.24355506896972656,"77":0.3566562235355377,"78":0.10575877130031586,"79":0.1351414918899536,"80":0.17742465436458588,"81":0.8488449454307556,"82":-0.7023396492004395,"83":0.7885937094688416,"84":-0.25678780674934387,"85":-0.4633433222770691,"86":-0.2816673219203949,"87":-0.7362279295921326,"88":0.9220395684242249,"89":0.9594243764877319,"90":-1.1231584548950195,"91":0.017296649515628815,"92":0.2756510376930237,"93":0.6308915615081787,"94":-1.1396746635437012,"95":0.6269045472145081,"96":1.277425765991211,"97":-3.7928223609924316,"98":0.5571730732917786,"99":-0.47080522775650024,"100":0.7707043290138245,"101":0.47971311211586,"102":-0.4520871937274933,"103":0.4605114758014679,"104":-1.2369163036346436,"105":-1.5248039960861206,"106":0.19936878979206085,"107":-0.6621569991111755,"108":0.31851255893707275,"109":0.6283403635025024,"110":-0.6167290806770325,"111":-1.3263416290283203,"112":0.04242926090955734,"113":1.3207980394363403,"114":-0.4175402820110321,"115":0.5397288799285889,"116":0.5307692289352417,"117":-0.5772020816802979,"118":0.7034592628479004,"119":0.7466139197349548,"120":0.2845807373523712,"121":0.5718271732330322,"122":-0.42281991243362427,"123":-0.6080271005630493,"124":-0.3054129183292389,"125":-0.43813958764076233,"126":-0.2397087663412094,"127":-0.590335488319397,"128":-0.9297918677330017,"129":0.45786193013191223,"130":-0.46715468168258667,"131":-0.2952251732349396,"132":0.1850704401731491,"133":0.532071053981781,"134":0.7891085743904114,"135":0.6247766017913818,"136":0.38579484820365906,"137":-0.4768843352794647,"138":0.23783771693706512,"139":1.4254835844039917,"140":-0.0296650268137455,"141":0.7628244161605835,"142":-0.009649996645748615,"143":0.820357084274292,"144":0.2012661248445511,"145":0.7500171661376953,"146":0.24647633731365204,"147":-0.7227892279624939,"148":1.3872853517532349,"149":0.7713738083839417,"150":-1.3492825031280518,"151":-0.458793044090271,"152":0.3628177046775818,"153":-0.30418482422828674,"154":-0.029312314465641975,"155":0.5417912602424622,"156":1.4119017124176025,"157":-2.157776355743408,"158":0.6973022222518921,"159":0.418469101190567,"160":0.6064831018447876,"161":-0.4774855077266693,"162":-0.3861461877822876,"163":-1.2051308155059814,"164":0.21767401695251465,"165":-1.159519076347351,"166":-0.6045876741409302,"167":0.4922575354576111,"168":-0.7943217754364014,"169":-0.06697801500558853,"170":0.9473196268081665,"171":0.283179372549057,"172":0.30269891023635864,"173":0.40271225571632385,"174":1.0732651948928833,"175":0.045177947729825974,"176":-0.8640505075454712,"177":0.5033535957336426,"178":-0.20134392380714417,"179":-0.7823727130889893,"180":0.28422102332115173,"181":0.737469494342804,"182":-0.4226503372192383,"183":1.214805006980896,"184":-0.7218970060348511,"185":0.23072367906570435,"186":-0.01914246194064617,"187":-0.9656861424446106,"188":1.1371781826019287,"189":0.7075122594833374,"190":-1.0738322734832764,"191":-1.2479376792907715,"192":0.412050724029541,"193":0.018290316686034203,"194":0.00984361581504345,"195":0.2634722590446472,"196":1.0608713626861572,"197":-1.3404855728149414,"198":0.8715496063232422,"199":0.4426014721393585,"200":-1.9262343645095825,"201":0.37660765647888184,"202":1.9443098306655884,"203":-0.04649262875318527,"204":-0.6259453892707825,"205":0.18900065124034882,"206":2.893003225326538,"207":-0.5428158044815063,"208":-1.445045828819275,"209":0.7734038829803467,"210":0.2566935122013092,"211":0.05618539825081825,"212":-2.6698906421661377,"213":-1.0755243301391602,"214":0.1461808830499649,"215":0.12796251475811005,"216":0.11556537449359894,"217":0.6760987043380737,"218":0.6190692186355591,"219":0.9877643585205078,"220":0.19306768476963043,"221":0.8053415417671204,"222":-1.0678471326828003,"223":0.7833524346351624,"224":-0.8781726360321045,"225":-1.165961503982544,"226":-0.09875796735286713,"227":-0.9727907776832581,"228":0.5550238490104675,"229":0.8220310807228088,"230":-0.9736619591712952,"231":-0.6473929286003113,"232":0.4403947591781616,"233":0.9643419981002808,"234":-0.8300063014030457,"235":0.9761132001876831,"236":1.2776908874511719,"237":-1.4381009340286255,"238":0.7915467619895935,"239":-0.5682789087295532,"240":0.8712148070335388,"241":-0.4642757773399353,"242":-0.25484177470207214,"243":-1.1813640594482422,"244":0.09039508551359177,"245":-0.9617432951927185,"246":-1.0342459678649902,"247":0.5887776613235474,"248":-0.30275991559028625,"249":-0.3339540362358093,"250":0.4427780508995056,"251":-0.011771867983043194,"252":-0.7437936067581177,"253":0.29798319935798645,"254":0.9311321973800659,"255":-0.16731983423233032,"256":-0.6443217396736145,"257":0.3450290262699127,"258":0.03559250384569168,"259":-0.41767793893814087,"260":1.003970980644226,"261":0.810781717300415,"262":-0.7720810174942017,"263":0.6183978915214539,"264":-0.8437349796295166,"265":-1.6353002786636353,"266":-0.4977337121963501,"267":-0.8807947635650635,"268":0.046263437718153,"269":0.7558770775794983,"270":-0.4186760187149048,"271":-0.9472704529762268,"272":-0.35087525844573975,"273":1.3659095764160156,"274":-0.5204012989997864,"275":0.879405677318573,"276":0.39831048250198364,"277":-0.538790225982666,"278":0.7564035654067993,"279":0.4810701310634613,"280":0.3206880986690521,"281":-0.2303614765405655,"282":-0.008723283186554909,"283":-1.018123984336853,"284":0.29205647110939026,"285":-0.1507691591978073,"286":-0.3118356168270111,"287":0.2728620767593384,"288":0.24263308942317963,"289":-0.3990842401981354,"290":0.14206722378730774,"291":0.0909150093793869,"292":-0.07935012876987457,"293":-0.002115394454449415,"294":0.12071174383163452,"295":0.1823301613330841,"296":-0.46662637591362,"297":0.551102340221405,"298":-0.5005049705505371,"299":0.13146404922008514,"300":0.30890220403671265,"301":0.6307846903800964,"302":-0.2792612910270691,"303":0.34688153862953186,"304":-1.134130597114563,"305":-0.5876734256744385,"306":0.17638535797595978,"307":-0.762619137763977,"308":-0.1254349797964096,"309":0.5730794668197632,"310":-0.47422993183135986,"311":-1.0422552824020386,"312":0.1312839686870575,"313":0.8163568377494812,"314":0.30643266439437866,"315":0.12774953246116638,"316":0.5910388231277466,"317":-0.2714906930923462,"318":0.4834264814853668,"319":2.6039485931396484,"320":-0.06912818551063538,"321":0.22215163707733154,"322":-0.01933434046804905,"323":-0.044156890362501144,"324":0.13385595381259918,"325":0.22524487972259521,"326":0.31465792655944824,"327":-0.18944667279720306,"328":-1.3461754322052002,"329":0.23662635684013367,"330":0.6570682525634766,"331":-0.5073524713516235,"332":-2.126800537109375,"333":0.21667568385601044,"334":0.19635596871376038,"335":0.17357705533504486,"336":-0.300209641456604,"337":2.793513059616089,"338":0.3590967357158661,"339":1.1330394744873047,"340":-2.981555700302124,"341":0.5690168738365173,"342":2.2411766052246094,"343":-0.18944542109966278,"344":-0.3525006175041199,"345":2.3751964569091797,"346":3.100839853286743,"347":-0.45877137780189514,"348":-1.62938392162323,"349":0.6153473854064941,"350":0.7556238174438477,"351":-0.017785251140594482,"352":-3.0974833965301514,"353":-1.9680817127227783,"354":0.3782447278499603,"355":-0.8919417262077332,"356":0.4724530875682831,"357":3.0600192546844482,"358":0.640509843826294,"359":0.729012668132782,"360":0.19715996086597443,"361":0.9771210551261902,"362":-0.7493496537208557,"363":1.1524031162261963,"364":-0.9761842489242554,"365":-0.6903337836265564,"366":-0.19183334708213806,"367":-0.9498664140701294,"368":0.43932175636291504,"369":1.0762494802474976,"370":-1.2734001874923706,"371":-1.2339541912078857,"372":0.04013144224882126,"373":0.6250653862953186,"374":-0.3712887763977051,"375":0.8152320384979248,"376":1.1916085481643677,"377":-1.4668794870376587,"378":1.1306670904159546,"379":0.5088139772415161,"380":0.6874351501464844,"381":-0.0645425096154213,"382":-0.9622781276702881,"383":0.13174481689929962,"384":0.14897720515727997,"385":-0.29351696372032166,"386":-0.5152204632759094,"387":-0.6742735505104065,"388":-0.026681503280997276,"389":-0.21519766747951508,"390":0.22603917121887207,"391":0.2085457444190979,"392":0.1403641253709793,"393":0.0875953882932663,"394":0.10020890831947327,"395":-0.2681008279323578,"396":-0.07661395519971848,"397":-0.4106925129890442,"398":0.041209105402231216,"399":-1.028104543685913}},"inputBias":{"rows":20,"columns":1,"weights":{"0":0.3773239850997925,"1":-0.9085595011711121,"2":-0.1830737590789795,"3":2.532846450805664,"4":-0.6356456279754639,"5":-0.2833400368690491,"6":0.9923951625823975,"7":-0.8729392886161804,"8":-0.7620514035224915,"9":-0.9198898077011108,"10":-0.8008887767791748,"11":-0.343884140253067,"12":2.3384034633636475,"13":-0.16584903001785278,"14":2.2680397033691406,"15":-0.4629250466823578,"16":-1.280862808227539,"17":1.1789196729660034,"18":-0.2990978956222534,"19":1.0912644863128662}},"forgetMatrix":{"rows":20,"columns":1,"weights":{"0":0.9655326008796692,"1":0.2085900455713272,"2":0.9914902448654175,"3":0.05509870499372482,"4":0.12391495704650879,"5":1.1879764795303345,"6":0.7877693176269531,"7":0.1923692673444748,"8":-0.06098366901278496,"9":-0.06913828104734421,"10":0.4514238238334656,"11":-0.1394927054643631,"12":0.19370470941066742,"13":1.3776723146438599,"14":-0.6908247470855713,"15":0.5789228677749634,"16":1.3055177927017212,"17":1.3992748260498047,"18":-0.1687553972005844,"19":-1.1229768991470337}},"forgetHidden":{"rows":20,"columns":20,"weights":{"0":-0.21293328702449799,"1":0.3555727005004883,"2":-0.053499575704336166,"3":0.5618700981140137,"4":-0.4941180944442749,"5":0.0591886043548584,"6":0.030864518135786057,"7":-0.44139277935028076,"8":-0.018781064078211784,"9":0.45629554986953735,"10":-0.428739458322525,"11":-0.5648267865180969,"12":-0.44505804777145386,"13":0.23823566734790802,"14":0.4370323419570923,"15":0.19863645732402802,"16":0.2200981229543686,"17":-0.5393441915512085,"18":0.466013640165329,"19":2.402313470840454,"20":0.015681544318795204,"21":0.654062807559967,"22":-0.2140650600194931,"23":0.5784662961959839,"24":-0.6333458423614502,"25":-0.05912627652287483,"26":0.04269927367568016,"27":-0.7524327039718628,"28":0.4628252685070038,"29":0.8235905170440674,"30":-0.5333314538002014,"31":-0.6993704438209534,"32":-0.11903244256973267,"33":0.1580931693315506,"34":0.08390624821186066,"35":0.2619893252849579,"36":0.9974856376647949,"37":-0.7128519415855408,"38":0.7989661693572998,"39":0.3151625692844391,"40":0.2650209069252014,"41":0.7084217667579651,"42":-1.0873039960861206,"43":0.33541107177734375,"44":-0.7403721213340759,"45":-1.2503663301467896,"46":-0.36339670419692993,"47":-0.8365796804428101,"48":-0.1330009251832962,"49":0.722237229347229,"50":-0.3236883580684662,"51":-0.5631953477859497,"52":-0.2569487690925598,"53":1.4176985025405884,"54":-0.4682309925556183,"55":0.6723337173461914,"56":0.33694562315940857,"57":-0.3951226472854614,"58":0.6506130695343018,"59":0.8438538908958435,"60":0.947180986404419,"61":-0.7250417470932007,"62":-0.09021233767271042,"63":-1.0592063665390015,"64":0.4615575671195984,"65":-0.5972384214401245,"66":-0.9608557820320129,"67":0.5970338582992554,"68":0.04612560197710991,"69":-0.47373124957084656,"70":0.6507696509361267,"71":-0.18812724947929382,"72":-0.8162574172019958,"73":0.16955074667930603,"74":1.1882895231246948,"75":-0.689103901386261,"76":-0.7331817150115967,"77":0.5201183557510376,"78":0.20740275084972382,"79":-0.5564378499984741,"80":0.6587480306625366,"81":0.7129116654396057,"82":-0.6908760070800781,"83":0.9854671955108643,"84":0.15079230070114136,"85":-0.5554796457290649,"86":-0.9991446733474731,"87":-0.5717387795448303,"88":0.878458559513092,"89":0.9569901823997498,"90":-0.7086403965950012,"91":0.3733183741569519,"92":-0.25203579664230347,"93":0.7522838115692139,"94":-1.5014337301254272,"95":0.578205943107605,"96":0.9946523904800415,"97":-2.236658811569214,"98":0.36130884289741516,"99":-0.2645253539085388,"100":-0.18594500422477722,"101":0.8164250254631042,"102":0.1441859006881714,"103":0.6013685464859009,"104":-1.602756142616272,"105":-1.2144368886947632,"106":1.0231820344924927,"107":-0.8018595576286316,"108":0.4144723415374756,"109":0.9016396403312683,"110":-0.46917352080345154,"111":-1.5382992029190063,"112":-0.0394047275185585,"113":0.8339471817016602,"114":-0.08733218908309937,"115":0.018127208575606346,"116":0.39949434995651245,"117":-0.41917291283607483,"118":0.9261673092842102,"119":1.016308307647705,"120":0.3520602881908417,"121":0.398709774017334,"122":-0.4159124493598938,"123":1.030402660369873,"124":-0.19937583804130554,"125":-0.37267667055130005,"126":-0.40584224462509155,"127":-0.35555997490882874,"128":0.68385910987854,"129":0.30419450998306274,"130":-0.4239453673362732,"131":-0.1187526062130928,"132":0.11346439272165298,"133":0.4179084897041321,"134":-0.2940560579299927,"135":0.4155287444591522,"136":0.20955057442188263,"137":-0.46775758266448975,"138":0.22959169745445251,"139":1.4537159204483032,"140":0.29401201009750366,"141":0.6415001153945923,"142":-0.555383026599884,"143":0.6014224290847778,"144":0.033742617815732956,"145":-0.21017171442508698,"146":-0.2115783542394638,"147":-0.6642109751701355,"148":0.4050092101097107,"149":0.695682942867279,"150":-0.6381306052207947,"151":-0.37479671835899353,"152":-0.008579800836741924,"153":0.42641681432724,"154":0.03636063635349274,"155":0.32829615473747253,"156":0.8978946805000305,"157":-1.3531571626663208,"158":0.7729204893112183,"159":0.2891526222229004,"160":-0.2940373420715332,"161":-0.6387367844581604,"162":0.43222299218177795,"163":-0.9266161322593689,"164":0.19044186174869537,"165":0.11450804769992828,"166":0.6072319149971008,"167":0.5334880948066711,"168":-0.8952904939651489,"169":-0.3646871745586395,"170":1.326433777809143,"171":0.24353408813476562,"172":-0.6535690426826477,"173":-0.29385116696357727,"174":1.0611302852630615,"175":-0.524884045124054,"176":-1.2683147192001343,"177":1.4365102052688599,"178":-0.5238983631134033,"179":0.0006050271913409233,"180":-0.016318518668413162,"181":0.6446539759635925,"182":-0.35100820660591125,"183":1.057884931564331,"184":-0.8075045347213745,"185":-0.1339728981256485,"186":0.10103931277990341,"187":-0.7603951096534729,"188":0.09741885215044022,"189":0.7467647194862366,"190":-0.692217230796814,"191":-1.271619439125061,"192":-0.23029981553554535,"193":0.21464282274246216,"194":0.5160717964172363,"195":0.016229724511504173,"196":0.9656581878662109,"197":-0.7574154734611511,"198":1.1832658052444458,"199":0.9594132304191589,"200":0.5505316257476807,"201":0.3242097795009613,"202":-0.9284534454345703,"203":-0.9782113432884216,"204":-0.6575454473495483,"205":-1.540926456451416,"206":-0.2331334948539734,"207":-0.267968088388443,"208":-1.7215981483459473,"209":0.5068925023078918,"210":0.32790398597717285,"211":-0.9045953154563904,"212":-1.1519241333007812,"213":1.3571572303771973,"214":1.1251766681671143,"215":0.6865205764770508,"216":-0.5568409562110901,"217":0.26503705978393555,"218":0.41987136006355286,"219":0.2859632968902588,"220":0.4199351370334625,"221":0.8244925141334534,"222":-0.8119303584098816,"223":0.5985682010650635,"224":-0.5775710344314575,"225":-0.951167643070221,"226":-0.570734977722168,"227":-0.9244547486305237,"228":0.4695703387260437,"229":0.9086341857910156,"230":-0.7768594622612,"231":-0.2864026129245758,"232":0.8842340111732483,"233":0.707709789276123,"234":-0.7984936237335205,"235":0.8311684727668762,"236":1.189823031425476,"237":-1.32583487033844,"238":0.4997189939022064,"239":-0.9397640228271484,"240":0.3159913420677185,"241":-1.2769598960876465,"242":0.5021237134933472,"243":-0.5767971277236938,"244":1.7862098217010498,"245":-0.20835134387016296,"246":-1.15506911277771,"247":1.28428316116333,"248":-0.8560880422592163,"249":-1.2580190896987915,"250":0.9668866395950317,"251":1.4762842655181885,"252":-0.594170331954956,"253":-0.2286009043455124,"254":0.17859865725040436,"255":-1.0214594602584839,"256":-1.1707793474197388,"257":0.8551428914070129,"258":-0.9545048475265503,"259":-0.9329067468643188,"260":-0.38481882214546204,"261":0.8969013094902039,"262":-0.16174276173114777,"263":0.4238567352294922,"264":-1.8173103332519531,"265":-1.3910795450210571,"266":1.68893301486969,"267":-0.9007928967475891,"268":0.18121926486492157,"269":0.9470099210739136,"270":-0.4171084761619568,"271":-1.8441585302352905,"272":-0.2129247784614563,"273":1.4039667844772339,"274":-0.3380841612815857,"275":-0.1964065432548523,"276":0.4424510896205902,"277":-0.4512535035610199,"278":1.2214971780776978,"279":1.676101803779602,"280":0.27385425567626953,"281":0.06305473297834396,"282":-0.1479295790195465,"283":-0.38788795471191406,"284":-1.117841362953186,"285":-0.8797229528427124,"286":-0.06649263948202133,"287":-0.004072409123182297,"288":0.8378753662109375,"289":0.1250128597021103,"290":-0.3972589373588562,"291":-1.7811371088027954,"292":-0.7936150431632996,"293":0.31841522455215454,"294":0.49356991052627563,"295":-0.08734677731990814,"296":0.3864296078681946,"297":-0.44416898488998413,"298":1.1682229042053223,"299":0.9055636525154114,"300":-0.6204281449317932,"301":0.4559071362018585,"302":0.3863125741481781,"303":0.2943951189517975,"304":-0.5137215256690979,"305":0.6357628703117371,"306":0.8930791616439819,"307":-0.426497220993042,"308":0.11556544154882431,"309":0.349732905626297,"310":-0.47534433007240295,"311":-0.3829002380371094,"312":-0.5340186953544617,"313":-0.4093013405799866,"314":0.04248414561152458,"315":-0.07612388581037521,"316":0.6731351017951965,"317":0.013804014772176743,"318":0.41939646005630493,"319":1.6979268789291382,"320":0.047551024705171585,"321":0.11654137074947357,"322":-0.008773009292781353,"323":-0.3953714966773987,"324":-0.10028376430273056,"325":0.17639511823654175,"326":-0.07691322267055511,"327":-0.16509473323822021,"328":-1.6271700859069824,"329":0.31085145473480225,"330":0.4699971675872803,"331":-0.3891116678714752,"332":-1.763515591621399,"333":0.15448926389217377,"334":0.6165373921394348,"335":0.2194855809211731,"336":0.09184285253286362,"337":1.5623706579208374,"338":0.3909066617488861,"339":0.924403190612793,"340":1.7422174215316772,"341":0.12646842002868652,"342":-2.0291900634765625,"343":-1.0814582109451294,"344":0.20082487165927887,"345":-2.9114649295806885,"346":-1.6314712762832642,"347":-0.10558243095874786,"348":-1.7418482303619385,"349":0.14179076254367828,"350":0.3723791539669037,"351":0.18171142041683197,"352":-0.38555774092674255,"353":2.491889715194702,"354":0.1442278027534485,"355":1.9699275493621826,"356":-2.0477709770202637,"357":-0.7942175269126892,"358":-0.37210485339164734,"359":-0.06631175428628922,"360":0.4357719123363495,"361":0.8645637035369873,"362":-0.5712189674377441,"363":0.8522130846977234,"364":-0.47440412640571594,"365":-0.4370209872722626,"366":-0.44003814458847046,"367":-0.8222604393959045,"368":0.2823205888271332,"369":1.2319679260253906,"370":-0.6195045113563538,"371":-0.6730588674545288,"372":-0.3683328926563263,"373":0.46824875473976135,"374":-0.035840846598148346,"375":0.7045191526412964,"376":1.1212098598480225,"377":-1.0734267234802246,"378":0.9656288623809814,"379":0.06014710292220116,"380":1.0098750591278076,"381":0.34313273429870605,"382":-0.5493306517601013,"383":0.2547134459018707,"384":0.685291588306427,"385":-0.7715182304382324,"386":-1.0107976198196411,"387":-0.32167914509773254,"388":0.3398940861225128,"389":-0.20526421070098877,"390":-0.004923635628074408,"391":0.15082429349422455,"392":0.6962733268737793,"393":0.4992021918296814,"394":-0.1797388792037964,"395":0.459064245223999,"396":0.22436606884002686,"397":-2.969743251800537,"398":0.1554853767156601,"399":-1.1765830516815186}},"forgetBias":{"rows":20,"columns":1,"weights":{"0":0,"1":0,"2":0,"3":0,"4":0,"5":0,"6":0,"7":0,"8":0,"9":0,"10":0,"11":0,"12":0,"13":0,"14":0,"15":0,"16":0,"17":0,"18":0,"19":0}},"outputMatrix":{"rows":20,"columns":1,"weights":{"0":0.8692831993103027,"1":-0.016647418960928917,"2":0.950128972530365,"3":-0.5032530426979065,"4":-0.5602730512619019,"5":0.6955077052116394,"6":0.5564671158790588,"7":-0.06143613159656525,"8":-0.8330769538879395,"9":0.029695646837353706,"10":0.20546796917915344,"11":-0.24634785950183868,"12":-1.0076088905334473,"13":0.8884930610656738,"14":-0.2180902510881424,"15":0.0930655300617218,"16":1.391771912574768,"17":1.382254719734192,"18":0.21418483555316925,"19":-1.5235522985458374}},"outputHidden":{"rows":20,"columns":20,"weights":{"0":0.520092248916626,"1":0.6123260855674744,"2":-0.9452226161956787,"3":3.800183057785034,"4":-0.6350054740905762,"5":-0.9644483327865601,"6":-0.42539075016975403,"7":-0.6465855836868286,"8":-0.12468089163303375,"9":0.5758416652679443,"10":-0.35679808259010315,"11":-0.6276043057441711,"12":-0.8343237638473511,"13":0.946008026599884,"14":-2.0768275260925293,"15":0.7548437714576721,"16":0.1992359310388565,"17":-0.2561770975589752,"18":0.48401516675949097,"19":1.0613818168640137,"20":0.12169761210680008,"21":0.8053511381149292,"22":-0.1270909160375595,"23":0.719597578048706,"24":-0.7336965203285217,"25":0.23911885917186737,"26":0.003550120862200856,"27":-0.8008396029472351,"28":0.9271950721740723,"29":0.8809629082679749,"30":-1.1601535081863403,"31":-0.8587294220924377,"32":0.10932812839746475,"33":-0.029052909463644028,"34":-0.1558498740196228,"35":0.486659973859787,"36":1.287320852279663,"37":-1.27061128616333,"38":0.7403406500816345,"39":0.41607776284217834,"40":0.8265026211738586,"41":0.7336130738258362,"42":-1.0618761777877808,"43":0.6701502799987793,"44":-0.9311216473579407,"45":-1.2106295824050903,"46":-0.29418155550956726,"47":-1.005199670791626,"48":0.5438438057899475,"49":0.7489671111106873,"50":-0.8969265222549438,"51":-0.8033677935600281,"52":0.06593897193670273,"53":1.5728719234466553,"54":-0.7873286604881287,"55":0.8916739225387573,"56":0.7630057334899902,"57":-0.8602747917175293,"58":0.7279642224311829,"59":1.398837685585022,"60":-0.937720000743866,"61":-0.16443537175655365,"62":0.6569170355796814,"63":-0.6648926138877869,"64":0.013276402838528156,"65":0.49319326877593994,"66":0.8155096769332886,"67":0.12705813348293304,"68":0.47446078062057495,"69":-0.012663853354752064,"70":0.44778162240982056,"71":-0.23072053492069244,"72":-0.6660267114639282,"73":-0.6493561267852783,"74":1.442199468612671,"75":-0.6067659854888916,"76":-0.22085781395435333,"77":0.29748791456222534,"78":0.12191389501094818,"79":0.12540830671787262,"80":0.5473275780677795,"81":0.7940839529037476,"82":-0.6868707537651062,"83":0.9895640015602112,"84":-0.4178634285926819,"85":-0.6646506190299988,"86":-0.8653244972229004,"87":-0.7468352317810059,"88":0.8395028114318848,"89":0.9946002960205078,"90":-0.9689419269561768,"91":-0.2629736065864563,"92":0.2984890341758728,"93":0.5507053136825562,"94":-1.132523775100708,"95":0.5228814482688904,"96":1.5276826620101929,"97":-4.695837020874023,"98":0.7361634373664856,"99":-0.6347973346710205,"100":0.4918551743030548,"101":0.7577958703041077,"102":-0.3154031038284302,"103":0.3566058874130249,"104":-1.1820696592330933,"105":-1.334193468093872,"106":0.14703458547592163,"107":-1.004989504814148,"108":0.38932499289512634,"109":0.8489929437637329,"110":-0.4870140850543976,"111":-1.2211995124816895,"112":-0.21898987889289856,"113":0.9648194909095764,"114":-0.14044873416423798,"115":0.43019944429397583,"116":0.3899044990539551,"117":-0.34425926208496094,"118":0.9391449689865112,"119":1.2909432649612427,"120":0.49459901452064514,"121":0.6795971989631653,"122":-0.6290779709815979,"123":5.308949947357178,"124":-0.606762707233429,"125":-0.48891058564186096,"126":-0.45226702094078064,"127":-0.6587209105491638,"128":0.353594034910202,"129":0.690161406993866,"130":-0.6983311772346497,"131":-0.4184083342552185,"132":-0.6609329581260681,"133":0.6413099765777588,"134":-3.436400890350342,"135":0.6994978785514832,"136":0.6310827136039734,"137":-0.5604651570320129,"138":0.5280143618583679,"139":0.9289678335189819,"140":0.3640923798084259,"141":0.8799394369125366,"142":-0.27616238594055176,"143":0.7601998448371887,"144":-0.033315494656562805,"145":0.04789164289832115,"146":-0.3816615641117096,"147":-0.8718669414520264,"148":1.2187174558639526,"149":0.9597130417823792,"150":-1.3688803911209106,"151":-0.5844169855117798,"152":0.05351464822888374,"153":0.09594649076461792,"154":-0.014694048091769218,"155":0.4953039884567261,"156":1.3631174564361572,"157":-1.9576613903045654,"158":0.8976483941078186,"159":0.3934898376464844,"160":0.331950843334198,"161":-0.20139773190021515,"162":-0.10242900997400284,"163":-1.9497592449188232,"164":-0.1014089584350586,"165":-1.2189480066299438,"166":-0.3389829993247986,"167":0.2593671977519989,"168":-1.1736265420913696,"169":-0.04199036583304405,"170":0.8506726026535034,"171":-0.2016398012638092,"172":0.5914541482925415,"173":0.2625579535961151,"174":1.8447517156600952,"175":-0.2738368809223175,"176":-0.590927004814148,"177":0.5089393258094788,"178":0.2626843750476837,"179":-0.7710134387016296,"180":0.5257256627082825,"181":0.8444238901138306,"182":-0.6497340798377991,"183":1.3827927112579346,"184":-0.788574755191803,"185":-0.2992270588874817,"186":-0.25064435601234436,"187":-1.113820195198059,"188":1.1376001834869385,"189":1.0055434703826904,"190":-1.0706344842910767,"191":-1.1585253477096558,"192":0.35180485248565674,"193":0.5031834244728088,"194":-0.15703418850898743,"195":0.40292492508888245,"196":1.1599695682525635,"197":-1.3998773097991943,"198":0.8700396418571472,"199":0.44912785291671753,"200":0.27243146300315857,"201":0.5042382478713989,"202":-0.699269711971283,"203":-0.7705656886100769,"204":-0.6571289896965027,"205":-1.164506196975708,"206":-0.2951876223087311,"207":-0.4066058099269867,"208":-1.4590805768966675,"209":0.6302492022514343,"210":0.10736189037561417,"211":-0.8482155203819275,"212":-1.8723199367523193,"213":1.0924599170684814,"214":1.3657029867172241,"215":0.72791987657547,"216":-0.21969497203826904,"217":0.18361811339855194,"218":0.6766307353973389,"219":0.43817630410194397,"220":0.446904718875885,"221":0.8461446166038513,"222":-1.0401380062103271,"223":0.8993300795555115,"224":-0.6597159504890442,"225":-0.963502824306488,"226":-0.6312863230705261,"227":-0.9472678303718567,"228":0.9774296283721924,"229":0.9681903123855591,"230":-1.0931249856948853,"231":-0.22874568402767181,"232":0.5016987919807434,"233":0.8598169088363647,"234":-1.1628940105438232,"235":0.7874041199684143,"236":1.2754676342010498,"237":-2.3253352642059326,"238":0.5807347297668457,"239":-0.6936663389205933,"240":0.5029911994934082,"241":-0.39515379071235657,"242":0.050306789577007294,"243":-1.8938387632369995,"244":-0.15439194440841675,"245":-0.7714171409606934,"246":-0.8287346363067627,"247":0.41124066710472107,"248":-0.198845773935318,"249":-0.3013838827610016,"250":0.3623788356781006,"251":-0.21234498918056488,"252":-1.4581016302108765,"253":-0.030856903642416,"254":1.5949443578720093,"255":-0.3575238883495331,"256":-0.3453165590763092,"257":-0.7370626330375671,"258":0.3040361702442169,"259":-0.6410683393478394,"260":0.23841308057308197,"261":0.899893045425415,"262":-0.022964337840676308,"263":0.5679318308830261,"264":-1.3439581394195557,"265":-1.283087968826294,"266":0.11153320223093033,"267":-1.1262309551239014,"268":0.36795470118522644,"269":0.9301807880401611,"270":-0.5968478322029114,"271":-1.2560456991195679,"272":-0.3616323471069336,"273":1.0319255590438843,"274":-0.3991974890232086,"275":0.4303807020187378,"276":0.6565768122673035,"277":-0.5898939967155457,"278":0.9160544276237488,"279":1.8640105724334717,"280":0.6965798139572144,"281":-0.2447437345981598,"282":-0.459374338388443,"283":-1.114412546157837,"284":0.2013912796974182,"285":-0.10136335343122482,"286":-0.34343934059143066,"287":0.2470858097076416,"288":-0.08052516728639603,"289":-0.34173595905303955,"290":0.5280990600585938,"291":-0.09107094258069992,"292":0.09268955141305923,"293":0.36716875433921814,"294":0.6244280338287354,"295":0.23078840970993042,"296":-0.6200959086418152,"297":0.7884164452552795,"298":-0.28048601746559143,"299":0.07196716219186783,"300":0.559503436088562,"301":0.6644960045814514,"302":-0.9732620120048523,"303":0.952450156211853,"304":-0.4972827732563019,"305":-0.511210560798645,"306":-0.4305565655231476,"307":-0.7528252005577087,"308":0.2756873071193695,"309":0.5780473947525024,"310":-0.4808419644832611,"311":-0.6081010699272156,"312":0.6671797037124634,"313":0.9261592626571655,"314":-0.7253973484039307,"315":0.176200732588768,"316":0.761688768863678,"317":-0.2747476100921631,"318":0.5711336135864258,"319":1.1992809772491455,"320":0.11697781085968018,"321":0.15157124400138855,"322":-0.09145274013280869,"323":-0.22093598544597626,"324":-0.06948549300432205,"325":0.005967572797089815,"326":-0.030322592705488205,"327":-0.22772139310836792,"328":-1.7232074737548828,"329":0.44311046600341797,"330":0.7246465682983398,"331":-0.4691578447818756,"332":-2.0321879386901855,"333":0.2665669322013855,"334":0.7039223909378052,"335":0.05365518853068352,"336":0.08109970390796661,"337":2.3981428146362305,"338":0.505718469619751,"339":1.040144920349121,"340":1.5286318063735962,"341":0.11810305714607239,"342":-1.5017675161361694,"343":-0.7604027986526489,"344":0.24221204221248627,"345":-2.4062445163726807,"346":-1.5982671976089478,"347":-0.09949518740177155,"348":-1.7337967157363892,"349":0.16154398024082184,"350":0.48641741275787354,"351":0.5565745234489441,"352":-1.0992629528045654,"353":1.9422208070755005,"354":0.23329608142375946,"355":1.659533977508545,"356":-1.0258888006210327,"357":-0.048194438219070435,"358":-0.3508627712726593,"359":-0.391497403383255,"360":0.200422003865242,"361":0.9047023057937622,"362":-0.7443988919258118,"363":1.050108790397644,"364":-0.8307744860649109,"365":-0.5989952683448792,"366":-0.4049856662750244,"367":-0.9600171446800232,"368":0.6018283367156982,"369":1.1014883518218994,"370":-1.2312324047088623,"371":-0.9296569228172302,"372":0.3548332750797272,"373":0.6600907444953918,"374":-0.20412611961364746,"375":0.6916174292564392,"376":1.020957112312317,"377":-1.3927022218704224,"378":1.1285779476165771,"379":0.39816814661026,"380":0.847062349319458,"381":-0.0046704960986971855,"382":-1.0986483097076416,"383":0.166184201836586,"384":0.2595590353012085,"385":-0.2763702869415283,"386":-0.555658757686615,"387":-1.0359243154525757,"388":0.28311875462532043,"389":-0.23016822338104248,"390":0.03833169862627983,"391":0.32260841131210327,"392":0.42091771960258484,"393":0.15513376891613007,"394":-0.1260925978422165,"395":-0.2564844489097595,"396":0.04099810868501663,"397":-0.494112104177475,"398":0.2753128409385681,"399":-0.8743553161621094}},"outputBias":{"rows":20,"columns":1,"weights":{"0":0.4583754539489746,"1":-0.8490779399871826,"2":-0.1622077375650406,"3":3.3544578552246094,"4":-0.5918965339660645,"5":-0.26152345538139343,"6":1.0978293418884277,"7":-0.8099478483200073,"8":-0.7735649943351746,"9":-0.8820892572402954,"10":-0.6493977904319763,"11":-0.2773799002170563,"12":2.6409060955047607,"13":-0.1846124678850174,"14":2.4001665115356445,"15":-0.42942020297050476,"16":-0.8693760633468628,"17":1.217852234840393,"18":-0.14701536297798157,"19":1.1445286273956299}},"cellActivationMatrix":{"rows":20,"columns":1,"weights":{"0":0.14756914973258972,"1":0.06973257660865784,"2":-0.14792710542678833,"3":0.07035988569259644,"4":-0.046803656965494156,"5":-0.09147697687149048,"6":-0.07017563283443451,"7":-0.06204637140035629,"8":-0.16955260932445526,"9":0.06582632660865784,"10":-0.13012203574180603,"11":-0.06357680261135101,"12":-0.031059032306075096,"13":0.14208370447158813,"14":-0.056169986724853516,"15":0.10657768696546555,"16":0.09665615856647491,"17":-0.061226483434438705,"18":0.14797060191631317,"19":0.056484322994947433}},"cellActivationHidden":{"rows":20,"columns":20,"weights":{"0":1.002182960510254,"1":0.10368680953979492,"2":-0.6270315647125244,"3":-0.31172722578048706,"4":0.11840878427028656,"5":-0.21108105778694153,"6":-0.18968188762664795,"7":-0.14424926042556763,"8":-1.2429810762405396,"9":0.22759197652339935,"10":-0.011658456176519394,"11":0.04873837158083916,"12":-0.009918319061398506,"13":0.572858989238739,"14":-0.04345008358359337,"15":0.6067559123039246,"16":-0.1484467089176178,"17":0.19273178279399872,"18":-0.27764222025871277,"19":0.17317624390125275,"20":0.03217169642448425,"21":0.2735452950000763,"22":-0.17044195532798767,"23":0.5043249726295471,"24":-0.38077980279922485,"25":-0.18541668355464935,"26":0.13509273529052734,"27":-0.30871784687042236,"28":-0.21075068414211273,"29":0.27092915773391724,"30":-0.23716631531715393,"31":-0.18539676070213318,"32":-0.5013247728347778,"33":0.18793199956417084,"34":-0.7426314949989319,"35":0.36989349126815796,"36":0.38624027371406555,"37":-0.2782425582408905,"38":0.16779199242591858,"39":0.33787134289741516,"40":-0.98218834400177,"41":-0.09171703457832336,"42":0.3016820251941681,"43":0.12511633336544037,"44":0.086556576192379,"45":0.3781186044216156,"46":1.0642551183700562,"47":0.12465407699346542,"48":1.1857141256332397,"49":-0.07807254046201706,"50":-0.2670820355415344,"51":-0.03260597959160805,"52":0.39554527401924133,"53":-0.4003841280937195,"54":-0.17478176951408386,"55":-0.09215163439512253,"56":0.496879905462265,"57":-0.3546591103076935,"58":0.10014138370752335,"59":-0.13099542260169983,"60":0.12519268691539764,"61":-0.1928853988647461,"62":-0.37671414017677307,"63":-0.23462148010730743,"64":0.3965234160423279,"65":-0.4712318480014801,"66":0.7628926038742065,"67":0.07683002948760986,"68":0.6419402360916138,"69":-0.09570395946502686,"70":0.21048757433891296,"71":0.6632504463195801,"72":1.0676326751708984,"73":0.4905971586704254,"74":0.23121321201324463,"75":-0.4579876959323883,"76":-0.10245423763990402,"77":0.24398770928382874,"78":-0.029969802126288414,"79":0.03726210072636604,"80":0.3984617590904236,"81":-0.2657056152820587,"82":-0.32930052280426025,"83":-0.358858197927475,"84":0.24857552349567413,"85":-0.3877771496772766,"86":-0.2221297025680542,"87":0.23326462507247925,"88":0.4846656918525696,"89":-0.26965323090553284,"90":0.37005484104156494,"91":0.08475099503993988,"92":0.8487465977668762,"93":0.22976969182491302,"94":0.31139567494392395,"95":0.058196090161800385,"96":-0.4317818880081177,"97":0.16456826031208038,"98":-0.49932748079299927,"99":-0.4982818067073822,"100":-0.7194024324417114,"101":0.0078803775832057,"102":0.2920442223548889,"103":-0.14127612113952637,"104":0.29429349303245544,"105":0.5355923175811768,"106":-0.9775412678718567,"107":0.05168906971812248,"108":0.9464134573936462,"109":-0.16012632846832275,"110":-0.3113526999950409,"111":0.3417062759399414,"112":0.8287478089332581,"113":-0.5501502156257629,"114":0.13190710544586182,"115":-0.10098740458488464,"116":0.47965842485427856,"117":-0.49474284052848816,"118":-0.246644988656044,"119":-0.35368165373802185,"120":-0.6465576887130737,"121":-0.28176864981651306,"122":0.565894365310669,"123":0.07425270229578018,"124":0.1300487220287323,"125":0.8795999884605408,"126":0.3380034565925598,"127":0.21821555495262146,"128":0.8032616376876831,"129":-0.22154971957206726,"130":0.2396753430366516,"131":0.04257645830512047,"132":0.028998954221606255,"133":-0.6239748597145081,"134":0.22103142738342285,"135":-0.4822956323623657,"136":-0.1221417710185051,"137":0.20879918336868286,"138":-0.032418057322502136,"139":-0.40436041355133057,"140":0.32110416889190674,"141":-0.2793629765510559,"142":-0.21293476223945618,"143":-0.4413670003414154,"144":0.3632839322090149,"145":0.00884974468499422,"146":-0.5630460381507874,"147":0.29138311743736267,"148":0.3205260634422302,"149":-0.2792551815509796,"150":0.23150867223739624,"151":0.3276534080505371,"152":0.7776790857315063,"153":0.17126142978668213,"154":0.602032482624054,"155":-0.2509177029132843,"156":-0.3699459135532379,"157":0.14689427614212036,"158":-0.29313015937805176,"159":-0.4156346619129181,"160":0.20026296377182007,"161":0.2272520810365677,"162":-0.3391541838645935,"163":0.9944852590560913,"164":-0.8667351007461548,"165":-0.20979291200637817,"166":-0.45602601766586304,"167":-0.46305131912231445,"168":-0.3260354995727539,"169":0.46238693594932556,"170":-0.7047708630561829,"171":-0.5564014911651611,"172":0.25103479623794556,"173":0.29582762718200684,"174":-0.5502660870552063,"175":0.3251665234565735,"176":0.8232753276824951,"177":-1.517535924911499,"178":0.7385566234588623,"179":0.08222126215696335,"180":-0.07277059555053711,"181":0.34335172176361084,"182":0.01835443638265133,"183":0.2086317092180252,"184":-0.4578517973423004,"185":0.21772202849388123,"186":0.5448469519615173,"187":-0.20294508337974548,"188":-0.5275944471359253,"189":0.2232877016067505,"190":-0.23779673874378204,"191":-0.6204454302787781,"192":-0.5041990280151367,"193":-0.022928563877940178,"194":-0.45995187759399414,"195":0.2476777583360672,"196":0.15754002332687378,"197":-0.21308189630508423,"198":0.18849095702171326,"199":0.41301286220550537,"200":-0.2738882005214691,"201":-0.2514491081237793,"202":0.291804701089859,"203":-0.629801869392395,"204":0.19732527434825897,"205":0.048077017068862915,"206":0.1937214881181717,"207":0.3754722476005554,"208":0.14192478358745575,"209":-0.2526329457759857,"210":0.20181886851787567,"211":0.004386438988149166,"212":-0.34929683804512024,"213":-0.25035902857780457,"214":0.8662998080253601,"215":-0.1642487794160843,"216":-0.2817245125770569,"217":0.11944086849689484,"218":0.1458500176668167,"219":-0.36399832367897034,"220":0.39497238397598267,"221":-0.3236284554004669,"222":-0.3398784399032593,"223":-0.1838965266942978,"224":0.09245873987674713,"225":-0.37003809213638306,"226":-0.2273685783147812,"227":0.2979975640773773,"228":0.3311610519886017,"229":-0.3731812536716461,"230":0.23507267236709595,"231":-0.008666835725307465,"232":0.7966389656066895,"233":0.19288718700408936,"234":-0.13314786553382874,"235":0.10382049530744553,"236":-0.3112359642982483,"237":0.20509150624275208,"238":-0.3589412569999695,"239":-0.6809173226356506,"240":1.0309864282608032,"241":0.5765761733055115,"242":-0.7386581897735596,"243":0.5526606440544128,"244":-0.4469577968120575,"245":0.19892388582229614,"246":-2.010138511657715,"247":-0.5538127422332764,"248":-0.3106909394264221,"249":0.4115113317966461,"250":-0.28032180666923523,"251":-0.32307323813438416,"252":1.364303708076477,"253":0.13949060440063477,"254":-0.5384669899940491,"255":0.3639482259750366,"256":0.357530415058136,"257":-0.6688232421875,"258":0.43697044253349304,"259":-0.19820472598075867,"260":0.803143322467804,"261":0.05860140174627304,"262":-0.20497900247573853,"263":0.0779208242893219,"264":0.03569885343313217,"265":-0.3944113254547119,"266":-1.0233349800109863,"267":-0.003557649441063404,"268":-1.2855980396270752,"269":0.02999882958829403,"270":0.3153891861438751,"271":0.011362488381564617,"272":-0.5767347812652588,"273":0.1856636255979538,"274":-0.026283949613571167,"275":0.152644082903862,"276":-0.6656867265701294,"277":0.5421873331069946,"278":0.00837655644863844,"279":0.16085313260555267,"280":-0.22588768601417542,"281":0.3537844121456146,"282":-0.2175876498222351,"283":0.5330097079277039,"284":-0.41904547810554504,"285":-0.3442632853984833,"286":0.4846186935901642,"287":-0.36775457859039307,"288":-0.25305017828941345,"289":1.0235567092895508,"290":-0.15312927961349487,"291":-0.2921694815158844,"292":-0.7921246886253357,"293":0.21912547945976257,"294":-0.5226451754570007,"295":0.10490802675485611,"296":0.49933311343193054,"297":-0.35097408294677734,"298":1.2519975900650024,"299":1.5126996040344238,"300":0.7581302523612976,"301":0.3708494007587433,"302":-0.8904886841773987,"303":0.018110187724232674,"304":-0.20180174708366394,"305":-0.7153372764587402,"306":-0.5120565891265869,"307":-0.21624773740768433,"308":-0.8670564293861389,"309":0.29565101861953735,"310":-0.15893760323524475,"311":-0.2657204866409302,"312":0.2605038285255432,"313":1.0105012655258179,"314":-0.23413631319999695,"315":0.36791539192199707,"316":0.030771180987358093,"317":-0.20649923384189606,"318":0.08864213526248932,"319":0.2808401882648468,"320":-0.779816746711731,"321":0.5150680541992188,"322":0.07390712946653366,"323":0.8673533797264099,"324":-0.9163174033164978,"325":-0.06724715232849121,"326":0.8668885827064514,"327":-0.4596109092235565,"328":0.3091915547847748,"329":0.5706846117973328,"330":-0.40638136863708496,"331":-0.38681602478027344,"332":-0.08812354505062103,"333":-0.0020278641022741795,"334":-0.7861620187759399,"335":-0.04362171143293381,"336":0.9822854399681091,"337":-0.732818603515625,"338":0.7020880579948425,"339":0.44954100251197815,"340":1.041878581047058,"341":-0.33845874667167664,"342":-0.28582701086997986,"343":-1.0758562088012695,"344":1.0431140661239624,"345":-0.07288112491369247,"346":-1.8658051490783691,"347":0.39799806475639343,"348":-0.7841395735740662,"349":-0.4307810068130493,"350":0.5294508337974548,"351":0.19008800387382507,"352":0.11911672353744507,"353":0.08361905813217163,"354":1.0060920715332031,"355":0.17743752896785736,"356":-0.7651932835578918,"357":0.9902700185775757,"358":-1.1428548097610474,"359":-1.529832124710083,"360":-0.18015839159488678,"361":0.2808280289173126,"362":0.29523593187332153,"363":0.26795482635498047,"364":0.19003155827522278,"365":0.33150795102119446,"366":0.3054964542388916,"367":-0.18853576481342316,"368":-0.5050380229949951,"369":0.16275514662265778,"370":-0.25242140889167786,"371":0.46665582060813904,"372":-1.1487772464752197,"373":-0.24941124022006989,"374":-0.2198033332824707,"375":-0.2335980385541916,"376":0.21946647763252258,"377":0.2521459758281708,"378":0.08718185126781464,"379":0.6299074292182922,"380":-1.1792117357254028,"381":-0.2902719974517822,"382":0.582817792892456,"383":-0.3597407937049866,"384":0.7316153049468994,"385":0.7926711440086365,"386":0.9752287268638611,"387":0.4016513526439667,"388":0.29458704590797424,"389":-0.6015477180480957,"390":0.29903292655944824,"391":0.684447705745697,"392":0.7432135343551636,"393":-0.6114163398742676,"394":0.24586160480976105,"395":-0.7114828824996948,"396":-0.33059319853782654,"397":0.3040160536766052,"398":-0.7003353238105774,"399":-0.8249680995941162}},"cellActivationBias":{"rows":20,"columns":1,"weights":{"0":0.746376097202301,"1":-0.23140184581279755,"2":-0.2689923048019409,"3":-1.0164247751235962,"4":0.16673687100410461,"5":-0.03337269276380539,"6":-1.153804898262024,"7":0.2573859691619873,"8":0.09410300105810165,"9":-0.22738727927207947,"10":-0.08200932294130325,"11":-0.11664661765098572,"12":1.4806928634643555,"13":0.31045082211494446,"14":0.49753421545028687,"15":-0.10541776567697525,"16":-0.010565444827079773,"17":-1.291878342628479,"18":0.14348356425762177,"19":-1.128302812576294}}}],"outputConnector":{"rows":1,"columns":20,"weights":{"0":0.3524410128593445,"1":-0.016504405066370964,"2":-0.13164100050926208,"3":-0.0522582121193409,"4":-0.008641712367534637,"5":-0.337922602891922,"6":-0.2864968776702881,"7":0.016252651810646057,"8":-0.28124183416366577,"9":-0.018471218645572662,"10":0.03957395628094673,"11":-0.027727341279387474,"12":-0.1667751520872116,"13":0.1729450821876526,"14":0.013053604401648045,"15":0.010374553501605988,"16":-0.06692945957183838,"17":0.1491074562072754,"18":-0.00551103800535202,"19":0.12616980075836182}},"output":{"rows":1,"columns":1,"weights":{"0":1.7901605367660522}},"inputLookup":null,"inputLookupLength":null,"outputLookup":null,"outputLookupLength":null}